{"learner":{"attributes":{"best_iteration":"427","best_ntree_limit":"428","scikit_learn":"{\"use_label_encoder\": null, \"n_estimators\": 428, \"objective\": \"binary:logistic\", \"max_depth\": 7, \"max_leaves\": null, \"max_bin\": null, \"grow_policy\": null, \"learning_rate\": 0.026768872295439432, \"verbosity\": null, \"booster\": null, \"tree_method\": null, \"gamma\": 0.03924692156251905, \"min_child_weight\": 9, \"max_delta_step\": null, \"subsample\": 0.46070024168143003, \"sampling_method\": null, \"colsample_bytree\": 0.5274875801464795, \"colsample_bylevel\": null, \"colsample_bynode\": null, \"reg_alpha\": 2.2138626604938196e-08, \"reg_lambda\": 0.16111207845535974, \"scale_pos_weight\": null, \"base_score\": null, \"missing\": NaN, \"num_parallel_tree\": null, \"random_state\": null, \"n_jobs\": null, \"monotone_constraints\": null, \"interaction_constraints\": null, \"importance_type\": null, \"gpu_id\": null, \"validate_parameters\": null, \"predictor\": null, \"enable_categorical\": false, \"feature_types\": null, \"max_cat_to_onehot\": null, \"max_cat_threshold\": null, \"eval_metric\": null, \"early_stopping_rounds\": null, \"callbacks\": null, \"classes_\": [0, 1], \"n_classes_\": 2, \"_estimator_type\": \"classifier\"}"},"feature_names":["no_of_adults","no_of_children","no_of_weekend_nights","no_of_week_nights","required_car_parking_space","lead_time","arrival_year","arrival_month","arrival_date","repeated_guest","no_of_previous_cancellations","no_of_previous_bookings_not_canceled","avg_price_per_room","no_of_special_requests","no_of_previous_bookings","no_of_nights","arrival_day","type_of_meal_plan_Meal Plan 2","type_of_meal_plan_Meal Plan 3","type_of_meal_plan_Not Selected","room_type_reserved_Room_Type 2","room_type_reserved_Room_Type 3","room_type_reserved_Room_Type 4","room_type_reserved_Room_Type 5","room_type_reserved_Room_Type 6","room_type_reserved_Room_Type 7","market_segment_type_Complementary","market_segment_type_Corporate","market_segment_type_Offline","market_segment_type_Online"],"feature_types":["int","int","int","int","int","int","int","int","int","int","int","int","float","int","int","int","int","int","int","int","int","int","int","int","int","int","int","int","int","int"],"gradient_booster":{"model":{"gbtree_model_param":{"num_parallel_tree":"1","num_trees":"428","size_leaf_vector":"0"},"tree_info":[0,0,0,0,0,0,0,0,0,0,0,0,0,0,0,0,0,0,0,0,0,0,0,0,0,0,0,0,0,0,0,0,0,0,0,0,0,0,0,0,0,0,0,0,0,0,0,0,0,0,0,0,0,0,0,0,0,0,0,0,0,0,0,0,0,0,0,0,0,0,0,0,0,0,0,0,0,0,0,0,0,0,0,0,0,0,0,0,0,0,0,0,0,0,0,0,0,0,0,0,0,0,0,0,0,0,0,0,0,0,0,0,0,0,0,0,0,0,0,0,0,0,0,0,0,0,0,0,0,0,0,0,0,0,0,0,0,0,0,0,0,0,0,0,0,0,0,0,0,0,0,0,0,0,0,0,0,0,0,0,0,0,0,0,0,0,0,0,0,0,0,0,0,0,0,0,0,0,0,0,0,0,0,0,0,0,0,0,0,0,0,0,0,0,0,0,0,0,0,0,0,0,0,0,0,0,0,0,0,0,0,0,0,0,0,0,0,0,0,0,0,0,0,0,0,0,0,0,0,0,0,0,0,0,0,0,0,0,0,0,0,0,0,0,0,0,0,0,0,0,0,0,0,0,0,0,0,0,0,0,0,0,0,0,0,0,0,0,0,0,0,0,0,0,0,0,0,0,0,0,0,0,0,0,0,0,0,0,0,0,0,0,0,0,0,0,0,0,0,0,0,0,0,0,0,0,0,0,0,0,0,0,0,0,0,0,0,0,0,0,0,0,0,0,0,0,0,0,0,0,0,0,0,0,0,0,0,0,0,0,0,0,0,0,0,0,0,0,0,0,0,0,0,0,0,0,0,0,0,0,0,0,0,0,0,0,0,0,0,0,0,0,0,0,0,0,0,0,0,0,0,0,0,0,0,0,0,0,0,0,0,0,0,0,0,0,0,0,0,0,0,0,0,0,0,0,0,0,0,0,0,0,0,0,0,0,0,0,0,0,0,0,0,0,0,0,0,0],"trees":[{"base_weights":[-7.127186E-1,-1.4309958E0,-5.5370545E-1,9.267387E-1,-1.5645195E0,-1.9326786E0,-5.052091E-1,1.2955346E0,4.2369553E-1,-1.4699726E0,-1.8412495E0,-1.0362724E0,-3.8744432E-1,1.5407318E0,1.0350776E0,-1.2349914E0,-1.623519E0,-1.7331892E0,-1.9945991E0,-9.673952E-1,-1.9061813E0,-3.2357258E-1,-1.2038237E0,-1.4219284E0,-9.7713894E-1,-1.512658E0,-1.7923048E0,-1.4640096E0,-1.7791642E0,-9.1939515E-1,-1.854995E0,-6.814913E-1,-2.0340173E-1,-1.0408605E0,-1.9530479E0,-1.719687E0,-1.0523697E0,-8.139019E-1,-1.9682885E0,-1.5448468E0,-1.0539714E0,-1.6624153E0,-1.9918755E0,-1.6276945E0,-1.8781015E0,-8.5271925E-1,-1.2412374E0,-6.429004E-1,-1.9780219E0,-1.8675302E-1,-1.9098142E0,-1.2230675E0,-5.403697E-1,-1.2806919E0,-1.962126E0,-7.060554E-1,-1.3988467E0,-1.6489556E0,-5.455181E-1,-1.4722102E0,-1.6520829E0,-1.7980503E0,-1.2819682E0,-1.7771981E0,-1.4686058E0,-1.0415988E0,-6.769575E-1,-1.4012272E0,-4.4315127E-1,-6.968738E-1,5.60835E-2,-1.6070576E-1,-1.1544967E0,-1.2937427E0,-6.243329E-1,-1.1409736E-1,-1.2303231E0],"categories":[],"categories_nodes":[],"categories_segments":[],"categories_sizes":[],"default_left":[1,1,1,1,1,0,1,1,0,1,1,1,1,0,0,1,1,1,0,1,0,1,1,1,1,1,1,0,1,1,0,1,1,1,0,1,1,1,0,1,0,1,0,1,0,1,1,1,0,1,0,1,1,0,0,0,0,0,0,0,0,0,0,0,0,0,0,0,0,0,0,0,0,0,0,0,0],"id":0,"left_children":[1,3,5,7,9,-1,11,13,-1,15,17,19,21,-1,-1,23,25,27,-1,29,-1,31,33,35,37,39,41,-1,43,45,-1,47,49,51,-1,53,55,57,-1,59,-1,61,-1,63,-1,65,67,69,-1,71,-1,73,75,-1,-1,-1,-1,-1,-1,-1,-1,-1,-1,-1,-1,-1,-1,-1,-1,-1,-1,-1,-1,-1,-1,-1,-1],"loss_changes":[3.8568237E2,1.929502E2,1.848136E2,6.0172443E0,1.4723633E1,0E0,1.6705371E2,9.507885E-1,0E0,1.5287537E1,1.877533E0,2.8757263E1,1.1399667E2,0E0,0E0,8.050598E0,4.450012E0,6.621094E-1,0E0,1.8882965E1,0E0,8.724397E1,1.9044357E1,1.0620026E1,1.149791E1,2.0802307E0,2.1276855E0,0E0,6.1509705E-1,8.990601E0,0E0,2.5308167E1,4.3101257E1,1.1808899E1,0E0,5.412689E0,5.1997643E0,1.3898361E1,0E0,7.602844E-1,0E0,2.8878632E0,0E0,3.0281067E-1,0E0,1.1643768E1,9.209656E0,1.8696442E1,0E0,3.7898212E1,0E0,3.9178314E0,1.0318551E1,0E0,0E0,0E0,0E0,0E0,0E0,0E0,0E0,0E0,0E0,0E0,0E0,0E0,0E0,0E0,0E0,0E0,0E0,0E0,0E0,0E0,0E0,0E0,0E0],"parents":[2147483647,0,0,1,1,2,2,3,3,4,4,6,6,7,7,9,9,10,10,11,11,12,12,15,15,16,16,17,17,19,19,21,21,22,22,23,23,24,24,25,25,26,26,28,28,29,29,31,31,32,32,33,33,35,35,36,36,37,37,39,39,41,41,43,43,45,45,46,46,47,47,49,49,51,51,52,52],"right_children":[2,4,6,8,10,-1,12,14,-1,16,18,20,22,-1,-1,24,26,28,-1,30,-1,32,34,36,38,40,42,-1,44,46,-1,48,50,52,-1,54,56,58,-1,60,-1,62,-1,64,-1,66,68,70,-1,72,-1,74,76,-1,-1,-1,-1,-1,-1,-1,-1,-1,-1,-1,-1,-1,-1,-1,-1,-1,-1,-1,-1,-1,-1,-1,-1],"split_conditions":[2.0175E3,7.5E0,1.5E0,5E-1,1.05E1,-5.1735625E-2,1.5E0,1.55E1,1.1341852E-2,1.5E0,5E-1,5E-1,1.15E1,4.1243654E-2,2.770786E-2,9.5E0,1.85E1,4.5E0,-5.339317E-2,5E-1,-5.1026326E-2,4.5E0,5E-1,2.5E0,5E-1,5.5E0,9.5E0,-3.9189886E-2,1.15E1,2.55E1,-4.9656127E-2,5E-1,5E-1,2.55E1,-5.2280888E-2,1.5E0,8.5E0,6E0,-5.2688867E-2,4.5E0,-2.8213626E-2,2.5E0,-5.3320263E-2,3.5E0,-5.027466E-2,6.5E0,5.5E0,5.5E0,-5.2949414E-2,5E-1,-5.1123574E-2,5E-1,5E-1,-3.4282677E-2,-5.25239E-2,-1.8900307E-2,-3.744555E-2,-4.414068E-2,-1.4602904E-2,-3.9409406E-2,-4.4224396E-2,-4.813178E-2,-3.4316845E-2,-4.757359E-2,-3.931292E-2,-2.7882425E-2,-1.8121388E-2,-3.7509274E-2,-1.186266E-2,-1.8654525E-2,1.5012921E-3,-4.301912E-3,-3.0904574E-2,-3.463203E-2,-1.6712688E-2,-3.0542575E-3,-3.293436E-2],"split_indices":[6,7,7,28,7,0,15,8,0,16,28,9,7,0,0,7,8,8,0,4,0,7,28,15,22,15,7,0,7,8,0,4,9,8,0,3,7,8,0,16,0,3,0,16,0,7,16,15,0,4,0,1,22,0,0,0,0,0,0,0,0,0,0,0,0,0,0,0,0,0,0,0,0,0,0,0,0],"split_type":[0,0,0,0,0,0,0,0,0,0,0,0,0,0,0,0,0,0,0,0,0,0,0,0,0,0,0,0,0,0,0,0,0,0,0,0,0,0,0,0,0,0,0,0,0,0,0,0,0,0,0,0,0,0,0,0,0,0,0,0,0,0,0,0,0,0,0,0,0,0,0,0,0,0,0,0,0],"sum_hessian":[3.37775E3,6.12E2,2.76575E3,3.275E1,5.7925E2,9.375E1,2.672E3,1.875E1,1.4E1,4.325E2,1.4675E2,4.8475E2,2.18725E3,9.25E0,9.5E0,1.715E2,2.61E2,8.725E1,5.95E1,4.495E2,3.525E1,2.02875E3,1.585E2,9.9E1,7.25E1,1.585E2,1.025E2,1.35E1,7.375E1,4.2675E2,2.275E1,5.0975E2,1.519E3,1.305E2,2.8E1,5.45E1,4.45E1,6.25E1,1E1,1.4775E2,1.075E1,6.3E1,3.95E1,3.025E1,4.35E1,3.54E2,7.275E1,4.9525E2,1.45E1,1.5045E3,1.45E1,9.55E1,3.5E1,1.975E1,3.475E1,2.25E1,2.2E1,1.5E1,4.75E1,8.95E1,5.825E1,4.6E1,1.7E1,1.475E1,1.55E1,1.7025E2,1.8375E2,6.05E1,1.225E1,4.5975E2,3.55E1,1.46525E3,3.925E1,8.525E1,1.025E1,2.175E1,1.325E1],"tree_param":{"num_deleted":"0","num_feature":"30","num_nodes":"77","size_leaf_vector":"0"}},{"base_weights":[-6.54453E-1,-1.0333592E0,8.885134E-1,-6.31714E-1,-1.4616021E0,9.315542E-1,-1.9548743E0,-1.4099965E0,1.8270397E-1,-1.5897145E0,-1.1309962E0,5.46677E-1,1.3180302E0,-1.6527886E0,-5.515918E-1,-9.368965E-1,5.7682806E-1,-1.4534183E0,-1.8973463E0,-1.2939154E0,-8.405273E-1,-4.1324295E-2,1.0322568E0,1.8495289E0,7.145234E-1,-1.6960357E0,-1.2178075E0,-8.543737E-2,-1.1623722E0,-1.3409126E0,-5.3910434E-1,6.2368476E-1,-1.824216E0,-1.9566642E0,-1.3505608E0,-1.7598585E0,-1.2308741E0,-7.359241E-1,-1.9568868E0,1.4110082E-1,-1.0504947E0,9.528621E-1,1.7160224E0,1.9528465E0,8.792437E-1,5.27401E-1,1.614298E0,-1.6075226E0,-1.8435973E0,3.637051E-1,-1.6837761E0,-9.5609164E-1,7.534738E-2,-1.8613588E0,-9.8349595E-1,-1.2015909E0,-1.6566899E0,-2.347587E-1,-1.9428947E0,7.077399E-1,-3.590831E-3,-1.7057264E0,-1.20923E0,-1.1257416E0,-1.5314465E0,-1.0758861E0,-3.306622E-1,8.4485203E-1,-3.0081466E-1,-1.5249952E0,-5.611525E-1,1.0820365E0,-1.7400931E-1,6.740938E-1,-5.9821874E-1,1.75228E0,1.3387104E0,-1.6364162E0,-1.1706462E0,-1.858894E0,-1.5615224E0,-1.2727593E0,-1.8472914E0,-6.6034865E-1,2.7526477E-1,-7.038818E-1,-1.6840185E0,-1.336741E0,-1.0634793E0,-1.2150737E0,4.6066444E-2,2.338796E-1,8.2577825E-1,-1.4540964E0,4.5888054E-1,-1.7843653E0,-1.58535E0,-1.1334376E0,-1.9300474E0,-1.1697029E0,-6.7214966E-1,-1.6681428E0,-1.0383228E0,-8.4542197E-1,-1.9392067E0,-3.5823416E-2,-6.884624E-1,4.258945E-1,1.7814616E0,-1.0109836E0,2.7671719E-2,1.7457952E0,9.9404037E-1,5.3159356E-1,1.3087169E0],"categories":[],"categories_nodes":[],"categories_segments":[],"categories_sizes":[],"default_left":[1,1,1,1,1,1,0,1,1,1,1,1,1,1,1,1,1,1,0,1,1,1,1,1,1,1,1,1,1,1,1,1,0,0,1,0,1,1,0,1,1,1,0,0,0,1,1,1,1,0,1,0,1,0,1,1,0,1,0,1,1,1,1,1,1,1,1,1,1,0,0,1,0,1,0,0,0,0,0,0,0,0,0,0,0,0,0,0,0,0,0,0,0,0,0,0,0,0,0,0,0,0,0,0,0,0,0,0,0,0,0,0,0,0,0],"id":1,"left_children":[1,3,5,7,9,11,-1,13,15,17,19,21,23,25,27,29,31,33,-1,35,37,39,41,43,45,47,49,51,53,55,57,59,-1,-1,61,-1,63,65,-1,67,69,71,-1,-1,-1,73,75,77,79,-1,81,-1,83,-1,85,87,-1,89,-1,91,93,95,97,99,101,103,105,107,109,-1,-1,111,-1,113,-1,-1,-1,-1,-1,-1,-1,-1,-1,-1,-1,-1,-1,-1,-1,-1,-1,-1,-1,-1,-1,-1,-1,-1,-1,-1,-1,-1,-1,-1,-1,-1,-1,-1,-1,-1,-1,-1,-1,-1,-1],"loss_changes":[1.9603558E3,4.6286133E2,8.1201965E1,8.806885E2,5.488501E1,9.677203E1,0E0,1.4792358E2,2.9973248E2,3.890503E1,1.7068146E1,9.3267944E1,1.0400122E2,1.0083862E1,4.4651978E1,2.8308731E1,5.6701202E1,3.327307E1,0E0,6.4993286E0,1.5111496E1,2.7250366E1,9.4487915E0,1.7031311E1,2.5522736E1,6.095703E0,3.7422363E1,1.2491635E1,8.194168E0,3.5349274E0,3.811717E1,2.5986969E1,0E0,0E0,2.6826904E1,0E0,6.2285156E0,1.6529999E1,0E0,3.9037716E1,5.1236687E0,2.3415619E1,0E0,0E0,0E0,2.093697E1,6.168289E-1,3.6779785E0,3.4173584E-1,0E0,2.2523346E0,0E0,1.1119431E1,0E0,1.0465141E1,9.169769E-1,0E0,2.0283566E1,0E0,2.4279022E1,3.928321E1,9.9853516E-1,2.0823242E1,2.927185E0,3.2873535E0,1.2748337E1,5.814567E0,1.8873646E1,1.8000652E1,0E0,0E0,8.140198E0,0E0,1.0008068E1,0E0,0E0,0E0,0E0,0E0,0E0,0E0,0E0,0E0,0E0,0E0,0E0,0E0,0E0,0E0,0E0,0E0,0E0,0E0,0E0,0E0,0E0,0E0,0E0,0E0,0E0,0E0,0E0,0E0,0E0,0E0,0E0,0E0,0E0,0E0,0E0,0E0,0E0,0E0,0E0,0E0],"parents":[2147483647,0,0,1,1,2,2,3,3,4,4,5,5,7,7,8,8,9,9,10,10,11,11,12,12,13,13,14,14,15,15,16,16,17,17,19,19,20,20,21,21,22,22,23,23,24,24,25,25,26,26,27,27,28,28,29,29,30,30,31,31,34,34,36,36,37,37,39,39,40,40,41,41,45,45,46,46,47,47,48,48,50,50,52,52,54,54,55,55,57,57,59,59,60,60,61,61,62,62,63,63,64,64,65,65,66,66,67,67,68,68,71,71,73,73],"right_children":[2,4,6,8,10,12,-1,14,16,18,20,22,24,26,28,30,32,34,-1,36,38,40,42,44,46,48,50,52,54,56,58,60,-1,-1,62,-1,64,66,-1,68,70,72,-1,-1,-1,74,76,78,80,-1,82,-1,84,-1,86,88,-1,90,-1,92,94,96,98,100,102,104,106,108,110,-1,-1,112,-1,114,-1,-1,-1,-1,-1,-1,-1,-1,-1,-1,-1,-1,-1,-1,-1,-1,-1,-1,-1,-1,-1,-1,-1,-1,-1,-1,-1,-1,-1,-1,-1,-1,-1,-1,-1,-1,-1,-1,-1,-1,-1],"split_conditions":[1.515E2,5E-1,2.5E0,5E-1,7.15E1,5E-1,-5.232978E-2,9.15E1,1.35E1,1.5E0,8.5E0,2.325E2,5E-1,7.45E1,1.165E2,3.5E0,5E-1,5E-1,-5.0789822E-2,5E-1,2.5E0,5E-1,3.68E2,1.15E1,5E-1,9.5E0,7.85E1,9.85E1,3.5E0,8.5E0,1.15E1,1.05E1,-4.8832204E-2,-5.2377693E-2,9.5E0,-4.710943E-2,1.5E0,1.005E2,-5.2383654E-2,6.5E0,7.5E0,3.25E2,4.5935985E-2,5.22755E-2,2.3536362E-2,1.05E1,1.995E2,5E-1,6.55E1,9.735975E-3,5.5E0,-2.5593495E-2,3.5E0,-4.9826477E-2,8.5E0,5E-1,-4.4347722E-2,2.5E0,-5.2009102E-2,3.5E0,2.45E1,4.5E0,1.15E1,1.425E2,5E-1,1.15E1,1.5E0,1.925E2,1.65E2,-4.08224E-2,-1.502142E-2,2.535E2,-4.658033E-3,5E-1,-1.601364E-2,4.690656E-2,3.583577E-2,-4.3805018E-2,-3.1336877E-2,-4.9760498E-2,-4.1800193E-2,-3.407033E-2,-4.9449906E-2,-1.767679E-2,7.3685274E-3,-1.8842122E-2,-4.5079276E-2,-3.578305E-2,-2.8468141E-2,-3.2526154E-2,1.2331468E-3,6.260693E-3,2.2105152E-2,-3.8924523E-2,1.22837145E-2,-4.776545E-2,-4.2438034E-2,-3.0340847E-2,-5.1665194E-2,-3.1311627E-2,-1.7992688E-2,-4.4654302E-2,-2.779473E-2,-2.2630993E-2,-5.1910378E-2,-9.5895247E-4,-1.8429361E-2,1.1400715E-2,4.7687717E-2,-2.7062891E-2,7.4074074E-4,4.673297E-2,2.660934E-2,1.423016E-2,3.5032876E-2],"split_indices":[5,13,13,29,5,29,0,5,5,13,7,5,13,5,5,5,4,29,0,29,13,13,5,7,22,7,5,5,7,7,7,7,0,0,5,0,13,5,0,7,7,5,0,0,0,7,5,22,5,0,7,0,7,0,7,5,0,7,0,7,5,5,7,5,1,7,13,5,5,0,0,5,0,1,0,0,0,0,0,0,0,0,0,0,0,0,0,0,0,0,0,0,0,0,0,0,0,0,0,0,0,0,0,0,0,0,0,0,0,0,0,0,0,0,0],"split_type":[0,0,0,0,0,0,0,0,0,0,0,0,0,0,0,0,0,0,0,0,0,0,0,0,0,0,0,0,0,0,0,0,0,0,0,0,0,0,0,0,0,0,0,0,0,0,0,0,0,0,0,0,0,0,0,0,0,0,0,0,0,0,0,0,0,0,0,0,0,0,0,0,0,0,0,0,0,0,0,0,0,0,0,0,0,0,0,0,0,0,0,0,0,0,0,0,0,0,0,0,0,0,0,0,0,0,0,0,0,0,0,0,0,0,0],"sum_hessian":[3.3526877E3,2.6917324E3,6.6095544E2,1.3892068E3,1.3025256E3,6.5120636E2,9.749084E0,7.103024E2,6.789043E2,9.383095E2,3.6421613E2,3.2647296E2,3.2473337E2,5.535785E2,1.5672389E2,1.7670659E2,5.0219772E2,6.508656E2,2.874439E2,2.3298315E2,1.3123297E2,1.477301E2,1.7874284E2,1.7249083E2,1.5224254E2,5.0309244E2,5.048607E1,8.898965E1,6.7734245E1,8.747795E1,8.922864E1,4.9270184E2,9.495882E0,1.09960945E2,5.4090466E2,2.7248785E1,2.0573438E2,1.2023431E2,1.0998668E1,1.2523101E2,2.24991E1,1.60493E2,1.8249855E1,1.5574384E2,1.6747002E1,1.26243706E2,2.5998837E1,3.156622E2,1.8743027E2,1.1497736E1,3.8988335E1,1.3747827E1,7.524182E1,1.349298E1,5.4241264E1,6.123508E1,2.6242874E1,7.3484955E1,1.5743688E1,4.34463E2,5.8238846E1,1.5346423E2,3.8744043E2,1.5298772E2,5.2746655E1,6.523991E1,5.4994396E1,4.824842E1,7.698259E1,1.124966E1,1.1249441E1,1.4399332E2,1.649968E1,1.1174546E2,1.4498245E1,1.6749405E1,9.249432E0,2.956655E2,1.99967E1,1.769346E2,1.0495664E1,1.1499077E1,2.7489256E1,1.5998027E1,5.9243793E1,3.8998127E1,1.5243135E1,3.0242676E1,3.0992403E1,1.6243956E1,5.7240997E1,8.6737816E1,3.477252E2,1.3996005E1,4.424284E1,9.147728E1,6.1986954E1,3.5095294E2,3.6487495E1,1.3923862E2,1.3749102E1,4.0997932E1,1.1748725E1,5.174533E1,1.34945755E1,3.0247082E1,2.4747314E1,3.3498486E1,1.4749931E1,2.424074E1,5.274185E1,1.6499735E1,1.27493576E2,9.14966E1,2.0248861E1],"tree_param":{"num_deleted":"0","num_feature":"30","num_nodes":"115","size_leaf_vector":"0"}},{"base_weights":[-6.3887125E-1,-1.0246115E0,8.700972E-1,-1.433577E0,-7.8711057E-1,1.0023758E-1,1.8289981E0,-1.6052701E0,-1.1886625E0,-5.8492774E-1,-1.2699329E0,-9.745645E-1,3.675331E-1,1.8560536E0,1.4883972E0,-1.5637794E0,-1.90605E0,-1.6333901E0,-9.7430974E-1,-1.2557297E0,-5.44433E-1,-1.6123579E0,-6.0392237E-1,6.0241044E-1,-1.4527932E0,-7.7602975E-2,9.592098E-1,1.7545271E0,1.9746349E0,1.0547583E0,1.8666285E0,-1.7176361E0,-1.4953258E0,-1.6685954E0,-1.1482812E0,-1.5799123E0,-8.6495197E-1,-1.9259104E0,-1.112958E0,-6.3090414E-1,-2.8066897E-1,-1.8426785E0,-1.3299507E0,-1.23277634E-1,-1.1084467E0,-1.6738781E0,-5.521447E-1,3.5412505E-1,-7.853685E-1,5.7730395E-1,1.4568522E0,1.8736119E0,1.6639758E0,-1.6915658E0,-1.9081665E0,-1.5537357E0,-1.2691851E0,-1.699848E0,-1.2650893E0,-1.7981663E0,-1.4970648E0,-1.0798707E0,-6.8733466E-1,-8.019493E-1,-1.5125042E0,-1.0797887E0,-5.7988346E-1,-9.741975E-2,-4.6457997E-1,-1.9137933E0,-6.173804E-1,-1.5789589E0,-3.3535868E-1,-9.4499254E-1,1.0330121E-2,-1.8823501E0,-8.483922E-1,-1.7783569E0,-1.2326884E0,9.841308E-1,-9.63513E-3,-1.3334458E0,3.573163E-1,9.6519613E-1,-7.687923E-2,1.9550362E0,1.2339574E0,1.5327381E0,1.9278396E0,1.53201E0,1.8323702E0,-1.899582E0,-1.664641E0,-1.7188481E0,-1.4037875E0,5.728407E-2,-1.4916264E0,-1.7717999E0,-1.5711651E0,-1.2521602E0,-1.5912241E0,-7.9029596E-1,-1.1426187E0,-1.7099741E-1,-7.3955554E-1,-1.1922214E0,-3.336718E-2,-1.2304128E0,-1.7388601E0,-1.584937E0,-1.6900255E-1,-6.5482223E-1,-2.738897E-1,5.497179E-1,-1.6478208E-1,-6.6383034E-1,1.585947E-1,-1.7663072E0,-1.4783219E0,-1.7385659E0,5.5589265E-1,4.2054754E-1,-4.37122E-1,-1.4154236E0,-3.4587318E-1,-1.5599625E0,-1.9406214E0,1.2473272E-1,1.6522355E0,-2.099227E-1,4.8872334E-1,-1.9250034E0,-1.0652245E0,-5.277008E-1,1.1046193E0,6.809921E-1,1.7141998E0,6.8328464E-1,-6.881168E-1,1.464486E0,7.695135E-1,1.9342114E0,1.4151525E0],"categories":[],"categories_nodes":[],"categories_segments":[],"categories_sizes":[],"default_left":[1,1,1,1,1,1,1,1,1,1,1,1,1,1,1,1,0,1,1,1,1,1,1,0,1,1,1,1,0,0,0,1,1,1,0,1,1,0,1,1,1,1,1,1,1,1,0,1,1,1,1,1,1,1,0,1,1,1,0,0,1,1,1,1,1,1,1,1,1,0,0,1,1,0,1,0,1,1,0,1,1,1,1,1,1,0,1,0,0,1,0,0,0,0,0,0,0,0,0,0,0,0,0,0,0,0,0,0,0,0,0,0,0,0,0,0,0,0,0,0,0,0,0,0,0,0,0,0,0,0,0,0,0,0,0,0,0,0,0,0,0,0,0],"id":2,"left_children":[1,3,5,7,9,11,13,15,17,19,21,23,25,27,29,31,-1,33,35,37,39,41,43,-1,45,47,49,51,-1,-1,-1,53,55,57,-1,59,61,-1,63,65,67,69,71,73,75,77,-1,79,81,83,85,87,89,91,-1,93,95,97,-1,-1,99,101,103,105,107,109,111,113,115,-1,-1,117,119,-1,121,-1,123,125,-1,127,129,131,133,135,137,-1,139,-1,-1,141,-1,-1,-1,-1,-1,-1,-1,-1,-1,-1,-1,-1,-1,-1,-1,-1,-1,-1,-1,-1,-1,-1,-1,-1,-1,-1,-1,-1,-1,-1,-1,-1,-1,-1,-1,-1,-1,-1,-1,-1,-1,-1,-1,-1,-1,-1,-1,-1,-1,-1,-1,-1,-1],"loss_changes":[1.9489486E3,2.5881543E2,5.0322363E2,4.0877808E1,1.6458545E2,1.0873932E2,2.352478E0,6.699707E0,3.828186E1,3.2202454E1,1.13384155E2,5.699462E1,7.983448E1,2.8197632E0,3.480259E0,4.92041E0,0E0,1.9326782E0,1.7872253E1,6.12265E0,2.55643E1,2.098584E1,4.1035347E1,0E0,1.1378632E1,5.2938747E1,2.4596222E1,1.1433411E0,0E0,0E0,0E0,2.492981E-1,4.3286133E0,1.1921387E0,0E0,3.1832886E-1,8.727356E0,0E0,6.776703E0,1.9250061E1,9.339182E0,1.5549438E1,3.662732E1,9.540861E0,1.6363174E1,1.7857513E0,0E0,2.4667128E1,4.1182663E1,1.8762764E1,5.8739014E0,7.1876526E-1,1.5061646E0,2.614746E-1,0E0,6.5150757E0,2.1579254E1,5.956116E-1,0E0,0E0,3.9636993E-1,1.7548447E0,3.4129906E0,9.559992E0,1.2118225E0,3.9545708E1,1.7376602E1,6.079174E0,1.7198397E1,0E0,0E0,1.8137817E0,3.753188E1,0E0,1.3776998E1,0E0,1.761779E1,8.289261E-1,0E0,2.2588188E1,6.843101E0,6.713379E0,1.4249556E1,9.689159E0,1.292532E1,0E0,4.03706E0,0E0,0E0,1.9274216E0,0E0,0E0,0E0,0E0,0E0,0E0,0E0,0E0,0E0,0E0,0E0,0E0,0E0,0E0,0E0,0E0,0E0,0E0,0E0,0E0,0E0,0E0,0E0,0E0,0E0,0E0,0E0,0E0,0E0,0E0,0E0,0E0,0E0,0E0,0E0,0E0,0E0,0E0,0E0,0E0,0E0,0E0,0E0,0E0,0E0,0E0,0E0,0E0,0E0,0E0,0E0,0E0,0E0],"parents":[2147483647,0,0,1,1,2,2,3,3,4,4,5,5,6,6,7,7,8,8,9,9,10,10,11,11,12,12,13,13,14,14,15,15,17,17,18,18,19,19,20,20,21,21,22,22,24,24,25,25,26,26,27,27,31,31,32,32,33,33,35,35,36,36,38,38,39,39,40,40,41,41,42,42,43,43,44,44,45,45,47,47,48,48,49,49,50,50,51,51,52,52,53,53,55,55,56,56,57,57,60,60,61,61,62,62,63,63,64,64,65,65,66,66,67,67,68,68,71,71,72,72,74,74,76,76,77,77,79,79,80,80,81,81,82,82,83,83,84,84,86,86,89,89],"right_children":[2,4,6,8,10,12,14,16,18,20,22,24,26,28,30,32,-1,34,36,38,40,42,44,-1,46,48,50,52,-1,-1,-1,54,56,58,-1,60,62,-1,64,66,68,70,72,74,76,78,-1,80,82,84,86,88,90,92,-1,94,96,98,-1,-1,100,102,104,106,108,110,112,114,116,-1,-1,118,120,-1,122,-1,124,126,-1,128,130,132,134,136,138,-1,140,-1,-1,142,-1,-1,-1,-1,-1,-1,-1,-1,-1,-1,-1,-1,-1,-1,-1,-1,-1,-1,-1,-1,-1,-1,-1,-1,-1,-1,-1,-1,-1,-1,-1,-1,-1,-1,-1,-1,-1,-1,-1,-1,-1,-1,-1,-1,-1,-1,-1,-1,-1,-1,-1,-1,-1],"split_conditions":[1.515E2,2.45E1,1.0004E2,1.07065E2,5E-1,1.5E0,1.4968E2,5E-1,3.5E0,6.7475E1,9.25E1,5E-1,2.315E2,5E-1,1.62285E2,2.0175E3,-5.102281E-2,5E-1,2.0175E3,2.2625E1,1.015E2,5E-1,1.165E2,1.6125849E-2,9.6335E1,5E-1,8.8915E1,1.845E2,5.285875E-2,2.823469E-2,4.9967542E-2,1.01625E2,1.5E0,1.93E2,-3.0738194E-2,1.16020004E2,1.05E1,-5.155445E-2,6.3805E1,2.0175E3,1.235E2,1.291E2,9.9979996E1,9.85E1,1.5E0,2.97E2,-1.4780291E-2,5E-1,8.4625E1,7.5835E1,8.907E1,1.555E2,1.1394E2,9E0,-5.1079467E-2,5.5E0,6.5675E1,5E-1,-3.3865012E-2,-4.8134882E-2,1.252E2,1.5E0,1.15E1,8.45E1,5E-1,6.25E1,5E-1,2.0175E3,1.30725E2,-5.1230088E-2,-1.6526576E-2,7.0415E1,6.85E1,-2.5296384E-2,1.055E2,-5.038839E-2,8.9875E1,2.08E2,-3.299768E-2,1.805E2,5E-1,1.64E2,1.945E2,7.3545E1,5E-1,5.2334115E-2,2.765E2,4.102967E-2,5.1606093E-2,1.02725E2,4.9050484E-2,-5.084967E-2,-4.4560563E-2,-4.6011627E-2,-3.7577808E-2,1.53343E-3,-3.9929155E-2,-4.7429085E-2,-4.205832E-2,-3.3518918E-2,-4.2595275E-2,-2.1155331E-2,-3.0586613E-2,-4.577408E-3,-1.9797068E-2,-3.1914424E-2,-8.932018E-4,-3.2936763E-2,-4.6547323E-2,-4.2426977E-2,-4.5240074E-3,-1.7528852E-2,-7.331718E-3,1.4715329E-2,-4.4110306E-3,-1.776999E-2,4.2454014E-3,-4.7282055E-2,-3.957301E-2,-4.653945E-2,1.4880619E-2,1.1257583E-2,-1.1701263E-2,-3.7889294E-2,-9.258635E-3,-4.1758437E-2,-5.1948246E-2,3.3389542E-3,4.4228483E-2,-5.619394E-3,1.3082572E-2,-5.153017E-2,-2.851486E-2,-1.4125955E-2,2.9569412E-2,1.8229391E-2,4.5887195E-2,1.829076E-2,-1.8420111E-2,3.9202638E-2,2.0599008E-2,5.177666E-2,3.7882037E-2],"split_indices":[5,5,12,12,28,0,12,9,5,12,5,28,5,28,12,6,0,27,6,12,5,2,5,0,12,28,12,5,0,0,0,12,2,12,0,12,5,0,12,6,5,12,12,5,0,5,0,2,12,12,12,5,12,12,0,5,12,2,0,0,12,0,5,5,27,5,19,6,12,0,0,12,5,0,5,0,12,5,0,5,19,5,5,12,28,0,5,0,0,12,0,0,0,0,0,0,0,0,0,0,0,0,0,0,0,0,0,0,0,0,0,0,0,0,0,0,0,0,0,0,0,0,0,0,0,0,0,0,0,0,0,0,0,0,0,0,0,0,0,0,0,0,0],"split_type":[0,0,0,0,0,0,0,0,0,0,0,0,0,0,0,0,0,0,0,0,0,0,0,0,0,0,0,0,0,0,0,0,0,0,0,0,0,0,0,0,0,0,0,0,0,0,0,0,0,0,0,0,0,0,0,0,0,0,0,0,0,0,0,0,0,0,0,0,0,0,0,0,0,0,0,0,0,0,0,0,0,0,0,0,0,0,0,0,0,0,0,0,0,0,0,0,0,0,0,0,0,0,0,0,0,0,0,0,0,0,0,0,0,0,0,0,0,0,0,0,0,0,0,0,0,0,0,0,0,0,0,0,0,0,0,0,0,0,0,0,0,0,0],"sum_hessian":[3.3478994E3,2.666348E3,6.815514E2,9.7927356E2,1.6870745E3,3.781385E2,3.034129E2,5.7516705E2,4.041065E2,1.1893768E3,4.976976E2,7.5226105E1,3.0291238E2,2.80421E2,2.2991932E1,5.063217E2,6.884534E1,1.3108072E2,2.730258E2,6.743705E1,1.1219397E3,3.285479E2,1.6914972E2,1.749475E1,5.7731354E1,1.7294254E2,1.2996985E2,1.5244553E2,1.2797546E2,1.0995773E1,1.1996159E1,1.5471088E2,3.516108E2,1.21845146E2,9.235582E0,4.1429672E1,2.3159612E2,1.1489997E1,5.5947056E1,8.447701E2,2.7716965E2,1.804718E2,1.480761E2,8.6727554E1,8.2422165E1,4.62419E1,1.1489454E1,1.0746857E2,6.547397E1,7.373296E1,5.6236897E1,6.447769E1,8.7967834E1,1.3748964E2,1.7221243E1,2.7868384E2,7.292697E1,1.1260588E2,9.239259E0,1.0481467E1,3.0948204E1,1.0442384E2,1.2717228E2,3.173156E1,2.4215496E1,8.588627E1,7.5888385E2,1.3895805E2,1.382116E2,1.7048645E2,9.9853525E0,1.1835086E2,2.972523E1,1.1992545E1,7.473501E1,2.0477514E1,6.194465E1,3.6993176E1,9.248726E0,3.9237446E1,6.8231125E1,4.4231754E1,2.1242212E1,4.6239223E1,2.7493738E1,1.6996532E1,3.924036E1,9.496696E0,5.4980995E1,5.0230484E1,3.7737347E1,1.4472438E1,1.230172E2,1.3183295E2,1.4685089E2,1.0490331E1,6.2436638E1,7.0903656E1,4.1702232E1,9.234157E0,2.1714046E1,1.8987753E1,8.543609E1,1.1743766E1,1.1542851E2,2.0986296E1,1.0745264E1,1.1242115E1,1.297338E1,5.5168808E1,3.0717466E1,6.094452E2,1.4943864E2,1.2992057E1,1.25966E2,1.04718864E2,3.349273E1,4.042604E1,7.792482E1,1.1486866E1,1.8238363E1,3.8994823E1,3.5740185E1,2.896664E1,3.2978004E1,1.64981E1,2.0495075E1,1.7245441E1,2.1992006E1,4.8737167E1,1.9493956E1,1.34883175E1,3.0743439E1,9.746709E0,1.1495503E1,3.3743202E1,1.249602E1,1.2245574E1,1.5248164E1,2.599215E1,1.3248214E1,1.0744459E1,3.9486027E1],"tree_param":{"num_deleted":"0","num_feature":"30","num_nodes":"143","size_leaf_vector":"0"}},{"base_weights":[-6.481623E-1,-1.0021669E0,7.783728E-1,-6.129804E-1,-1.4218886E0,4.846612E-2,1.7504658E0,-9.103286E-1,1.6094865E-1,-1.5823557E0,-1.2153947E0,5.338166E-1,-1.0984395E0,1.8246691E0,1.3768032E0,-1.2813967E0,-5.078112E-1,-9.6070194E-1,4.5542315E-1,-1.4677253E0,-1.832558E0,-1.0933058E0,-1.4971135E0,-7.63157E-1,9.6920854E-1,-1.7350787E0,-7.7821434E-1,1.8571811E0,1.3453164E0,5.71384E-1,1.6821952E0,-1.7558448E0,-1.0868627E0,-6.6278976E-1,5.641589E-1,-1.275222E0,-5.2364945E-1,-1.3013439E0,5.722466E-1,-1.7904767E0,-1.3523581E0,-1.8750353E0,-1.0389518E0,-1.2639192E0,-8.816827E-1,-1.8032092E0,-1.1224959E0,-1.373834E0,-5.3529096E-1,2.9388312E-1,1.686623E0,-1.9283448E0,-1.6437618E0,-1.469375E0,-4.9369946E-1,1.8889539E0,1.3876342E0,1.776247E0,1.4655498E0,-1.6457499E0,-1.8276117E0,-1.2259092E0,-5.8166033E-1,-1.0096676E0,-2.4275696E-1,-3.074612E-1,8.3743036E-1,-1.5804381E0,-1.0467469E0,-1.1142976E0,-8.703692E-2,2.0695345E-1,9.304041E-1,-1.8202152E0,-1.5762422E0,-1.6668223E0,-1.1967348E0,-1.8980888E0,-1.6362921E0,-6.5654045E-1,-1.3725947E0,-8.1259847E-1,-1.8938241E0,-1.9194199E0,-1.3368111E0,-9.541751E-1,-1.9084606E0,8.423225E-1,-9.129926E-1,-6.396544E-1,5.5922014E-1,1.7924144E0,1.5812163E0,-1.6409689E0,-1.2244111E0,-7.351186E-1,-4.380829E-2,-1.709385E0,-1.364102E0,-1.3535873E0,-7.5967175E-1,-1.3995695E0,-3.672653E-1,-1.5543374E0,-7.454037E-1,2.1607609E-1,-7.634061E-1,7.299829E-1,1.1662071E0,-1.1662277E0,-8.441917E-1,2.1562358E-2,-1.8377233E-1,1.0352795E0,-1.10846244E-1,8.444223E-1,1.761651E0,-1.7700512E0,-1.3557267E0,-1.1582798E0,-1.8784833E0,-1.7804664E0,-1.4410429E0,-1.5637689E0,-2.5906807E-1,-1.7934128E0,-1.301106E0,-8.6709356E-1,3.351145E-2,-1.1478493E0,-1.4944332E0,-1.1720138E0,-7.2094643E-1,-6.1313486E-1,-1.1976717E0,9.6021706E-1,-1.7328545E0,-4.8346305E-1,9.910716E-1,1.8829455E0,1.5143828E0,9.8543614E-1,1.7359314E0,-1.2402124E0,-3.556921E-1,1.9347867E-1,-2.8662974E-1],"categories":[],"categories_nodes":[],"categories_segments":[],"categories_sizes":[],"default_left":[1,1,1,1,1,1,1,1,1,1,1,1,1,1,1,1,1,1,1,1,1,1,1,1,1,1,1,1,0,0,1,1,1,1,1,1,1,0,1,1,1,1,0,1,1,1,1,0,1,1,1,0,0,1,1,0,0,0,0,1,0,1,1,1,1,0,1,0,1,0,1,1,1,0,0,1,1,0,1,1,1,1,0,0,1,1,0,0,1,1,1,1,1,0,0,1,1,0,0,0,0,0,0,0,0,0,0,0,0,0,0,0,0,0,0,0,0,0,0,0,0,0,0,0,0,0,0,0,0,0,0,0,0,0,0,0,0,0,0,0,0,0,0,0,0,0,0],"id":3,"left_children":[1,3,5,7,9,11,13,15,17,19,21,23,25,27,29,31,33,35,37,39,41,43,45,47,49,51,53,55,-1,-1,57,59,61,63,65,67,69,-1,71,73,75,77,-1,79,81,83,85,-1,87,89,91,-1,-1,93,95,-1,-1,-1,-1,97,-1,99,101,103,105,-1,107,-1,109,-1,111,113,115,-1,-1,117,119,-1,121,123,125,127,-1,-1,129,131,-1,-1,133,135,137,139,141,-1,-1,143,145,-1,-1,-1,-1,-1,-1,-1,-1,-1,-1,-1,-1,-1,-1,-1,-1,-1,-1,-1,-1,-1,-1,-1,-1,-1,-1,-1,-1,-1,-1,-1,-1,-1,-1,-1,-1,-1,-1,-1,-1,-1,-1,-1,-1,-1,-1,-1,-1,-1,-1],"loss_changes":[1.6863815E3,4.3687183E2,4.7109787E2,3.1953894E2,4.233667E1,2.1128275E2,7.4902954E0,1.4971643E2,1.2740561E2,2.0322998E1,1.9117737E1,1.5071542E2,2.2791855E1,3.2921143E0,1.1610512E1,4.785486E1,8.0039116E1,1.0919266E1,6.2810028E1,1.8120117E1,7.329468E0,1.4036285E1,1.9160126E1,9.220905E0,9.668814E1,1.5361786E-1,1.4707283E1,2.883545E0,0E0,0E0,2.8559113E-1,7.122803E-1,2.5911835E1,6.125392E1,1.4546192E1,2.9785995E0,8.711965E0,0E0,3.745584E1,3.685608E-1,1.7632874E1,6.8310547E-1,0E0,1.42187805E1,1.2077713E1,4.6410522E0,9.872253E0,0E0,2.5693783E1,2.5590591E1,6.2298584E-1,0E0,0E0,5.9690094E-1,5.821309E0,0E0,0E0,0E0,0E0,7.247009E-1,0E0,1.7120972E1,1.39932575E1,3.2969727E1,4.5532658E1,0E0,1.502121E0,0E0,4.970169E-1,0E0,2.0689741E-1,3.741382E1,1.0097343E1,0E0,0E0,3.5006409E0,6.098572E0,0E0,1.525116E-1,1.19556055E1,5.1726685E0,7.626198E0,0E0,0E0,2.9346848E-1,3.095646E0,0E0,0E0,3.1805573E0,4.03002E1,3.6258244E1,7.264404E-1,4.3205414E0,0E0,0E0,6.6175327E0,1.0982199E0,0E0,0E0,0E0,0E0,0E0,0E0,0E0,0E0,0E0,0E0,0E0,0E0,0E0,0E0,0E0,0E0,0E0,0E0,0E0,0E0,0E0,0E0,0E0,0E0,0E0,0E0,0E0,0E0,0E0,0E0,0E0,0E0,0E0,0E0,0E0,0E0,0E0,0E0,0E0,0E0,0E0,0E0,0E0,0E0,0E0,0E0,0E0,0E0,0E0,0E0],"parents":[2147483647,0,0,1,1,2,2,3,3,4,4,5,5,6,6,7,7,8,8,9,9,10,10,11,11,12,12,13,13,14,14,15,15,16,16,17,17,18,18,19,19,20,20,21,21,22,22,23,23,24,24,25,25,26,26,27,27,30,30,31,31,32,32,33,33,34,34,35,35,36,36,38,38,39,39,40,40,41,41,43,43,44,44,45,45,46,46,48,48,49,49,50,50,53,53,54,54,59,59,61,61,62,62,63,63,64,64,66,66,68,68,70,70,71,71,72,72,75,75,76,76,78,78,79,79,80,80,81,81,84,84,85,85,88,88,89,89,90,90,91,91,92,92,95,95,96,96],"right_children":[2,4,6,8,10,12,14,16,18,20,22,24,26,28,30,32,34,36,38,40,42,44,46,48,50,52,54,56,-1,-1,58,60,62,64,66,68,70,-1,72,74,76,78,-1,80,82,84,86,-1,88,90,92,-1,-1,94,96,-1,-1,-1,-1,98,-1,100,102,104,106,-1,108,-1,110,-1,112,114,116,-1,-1,118,120,-1,122,124,126,128,-1,-1,130,132,-1,-1,134,136,138,140,142,-1,-1,144,146,-1,-1,-1,-1,-1,-1,-1,-1,-1,-1,-1,-1,-1,-1,-1,-1,-1,-1,-1,-1,-1,-1,-1,-1,-1,-1,-1,-1,-1,-1,-1,-1,-1,-1,-1,-1,-1,-1,-1,-1,-1,-1,-1,-1,-1,-1,-1,-1,-1,-1],"split_conditions":[1.525E2,5E-1,1.0004E2,1.1325E2,4.75E1,5E-1,5E-1,4.25E1,9.5E0,1.5E0,1.5E0,1.5E0,1.805E2,1.5728E2,1.1074E2,2.0175E3,5E-1,1.5E0,2.0175E3,4.5E0,4.5E0,1.05350006E2,8.95E1,2.0175E3,8.432E1,7.5575E1,7.815E1,1.5E0,3.6012605E-2,1.5295306E-2,1.975E2,1.5E0,9.695E1,9.55E1,7.294E1,1.345E2,2.5E0,-3.483551E-2,1.3107E2,5E-1,9.0990005E1,3.5E0,-2.7811566E-2,2.0175E3,5E-1,3.5E0,2.5E0,-3.6775988E-2,1.15E1,2.0175E3,9.05E1,-5.161962E-2,-4.400165E-2,7.2755005E1,9.355E1,5.056517E-2,3.7145402E-2,4.754813E-2,3.9231118E-2,1.85E1,-4.8923105E-2,5E-1,2.5E0,2.0175E3,1.175E2,-8.23039E-3,2.55E1,-4.2306546E-2,1.609E2,-2.982849E-2,1.4216501E2,1.189E2,1.951E2,-4.872511E-2,-4.2194225E-2,5E-1,5E-1,-5.0809696E-2,1.45E1,6.45E1,7.206E1,1.425E2,-5.0695535E-2,-5.1380705E-2,1.08965E2,2.5E0,-5.108734E-2,2.2548024E-2,2.525E2,1.985E2,2.035E2,3.045E2,9.304E1,-4.3926887E-2,-3.2776106E-2,1.45E1,2.11E2,-4.575831E-2,-3.6515474E-2,-3.6234006E-2,-2.0335557E-2,-3.7464898E-2,-9.831279E-3,-4.160786E-2,-1.9953616E-2,5.7841134E-3,-2.0435521E-2,1.954082E-2,3.1218048E-2,-3.1218601E-2,-2.259806E-2,5.7720003E-4,-4.919378E-3,2.7713265E-2,-2.9672289E-3,2.2604233E-2,4.715741E-2,-4.7382277E-2,-3.6291275E-2,-3.1005844E-2,-5.028488E-2,-4.7661077E-2,-3.8575094E-2,-4.186033E-2,-6.9349604E-3,-4.8007637E-2,-3.482914E-2,-2.3211118E-2,8.970637E-4,-3.0726632E-2,-4.000429E-2,-3.1373486E-2,-1.9298922E-2,-1.6412929E-2,-3.206032E-2,2.5703928E-2,-4.6386562E-2,-1.2941761E-2,2.6529869E-2,5.040433E-2,4.0538322E-2,2.6379015E-2,4.6468925E-2,-3.319909E-2,-9.521476E-3,5.179206E-3,-7.672755E-3],"split_indices":[5,13,12,12,5,13,22,5,5,13,13,0,5,12,12,6,19,3,6,5,3,12,5,6,12,12,12,13,0,0,5,3,12,5,12,12,5,0,12,22,12,3,0,6,4,3,13,0,8,6,12,0,0,12,12,0,0,0,0,5,0,19,5,6,5,0,8,0,12,0,12,12,12,0,0,19,4,0,8,5,12,5,0,0,12,3,0,0,5,5,5,5,12,0,0,8,5,0,0,0,0,0,0,0,0,0,0,0,0,0,0,0,0,0,0,0,0,0,0,0,0,0,0,0,0,0,0,0,0,0,0,0,0,0,0,0,0,0,0,0,0,0,0,0,0,0,0],"split_type":[0,0,0,0,0,0,0,0,0,0,0,0,0,0,0,0,0,0,0,0,0,0,0,0,0,0,0,0,0,0,0,0,0,0,0,0,0,0,0,0,0,0,0,0,0,0,0,0,0,0,0,0,0,0,0,0,0,0,0,0,0,0,0,0,0,0,0,0,0,0,0,0,0,0,0,0,0,0,0,0,0,0,0,0,0,0,0,0,0,0,0,0,0,0,0,0,0,0,0,0,0,0,0,0,0,0,0,0,0,0,0,0,0,0,0,0,0,0,0,0,0,0,0,0,0,0,0,0,0,0,0,0,0,0,0,0,0,0,0,0,0,0,0,0,0,0,0],"sum_hessian":[3.3389602E3,2.675151E3,6.638092E2,1.388273E3,1.2868779E3,3.7922958E2,2.845796E2,1.00291754E3,3.8535538E2,7.235391E2,5.6333887E2,2.665264E2,1.1270321E2,2.369079E2,4.7671696E1,5.21662E2,4.8125555E2,8.005648E1,3.052989E2,4.9696176E2,2.2657735E2,3.9356522E2,1.6977364E2,6.695506E1,1.9957132E2,3.7479126E1,7.522408E1,2.2142659E2,1.54813175E1,1.3233406E1,3.443829E1,1.5131863E2,3.7034335E2,4.2052084E2,6.0734703E1,4.6374557E1,3.3681923E1,1.8934359E1,2.8636453E2,1.302461E2,3.6671567E2,2.1485768E2,1.1719662E1,2.174517E2,1.7611351E2,9.309357E1,7.668008E1,1.7974216E1,4.8980846E1,1.029182E2,9.665313E1,1.0986291E1,2.6492836E1,2.1740297E1,5.3483784E1,2.0693677E2,1.4489822E1,2.320466E1,1.1233628E1,6.1235397E1,9.0083244E1,2.902329E2,8.011045E1,2.301931E2,1.9032774E2,1.4491813E1,4.624289E1,1.9444977E1,2.692958E1,1.4209408E1,1.9472513E1,1.4189586E2,1.4446867E2,1.1330951E2,1.6936594E1,1.2088392E2,2.4583174E2,1.9491638E2,1.9941301E1,3.3174812E1,1.842769E2,1.6513275E2,1.0980762E1,7.4122734E1,1.8970829E1,6.344872E1,1.3231355E1,1.0496856E1,3.848399E1,2.2727732E1,8.019047E1,4.695155E1,4.9701576E1,1.2244815E1,9.495482E0,3.473972E1,1.874406E1,4.9283615E1,1.1951779E1,2.2759889E2,6.2634026E1,1.6452839E1,6.3657616E1,7.494296E1,1.5525014E2,1.0121986E2,8.9107895E1,3.524372E1,1.0999167E1,1.645613E1,1.0473451E1,9.232696E0,1.0239819E1,3.9244274E1,1.02651596E2,1.3122038E2,1.3248285E1,9.019835E1,3.0685566E1,2.3311726E2,1.2714485E1,1.0718542E1,9.222758E0,9.962564E0,2.3212248E1,2.619569E1,1.580812E2,1.5513692E2,9.995841E0,9.234559E0,9.736269E0,3.2471455E1,3.0977266E1,1.8989796E1,1.9494194E1,9.233837E0,1.3493896E1,2.3479984E1,5.671048E1,3.4717144E1,1.2234407E1,1.0490771E1,3.9210808E1,1.4745266E1,1.9994455E1,9.496625E0,9.247436E0],"tree_param":{"num_deleted":"0","num_feature":"30","num_nodes":"147","size_leaf_vector":"0"}},{"base_weights":[-6.187153E-1,-9.8383296E-1,7.96428E-1,-6.1212665E-1,-1.3973502E0,-7.137028E-4,9.861264E-1,-1.3031267E0,9.766277E-2,-1.2704437E0,-1.6839248E0,1.0650374E0,-4.1312945E-1,1.2849681E0,5.5519253E-1,-1.5314636E0,-4.48886E-1,-8.375175E-1,5.883505E-1,-1.7603072E0,-1.169241E0,-1.7929914E0,-1.2054912E0,1.6284127E0,2.1774915E-1,4.6589926E-1,-1.2577488E0,1.7505411E0,9.188515E-1,9.259855E-2,8.884709E-1,-1.6105572E0,-1.2431277E0,-3.239206E-2,-1.2543757E0,-1.4163165E0,-4.7477803E-1,6.146171E-1,-4.3729168E-1,-1.8178457E0,-1.3073254E0,-1.6735175E0,-1.0684876E0,-1.0672749E0,-1.8585097E0,-6.571741E-1,1.7233429E0,-7.006931E-1,-1.7419932E0,1.7917825E0,1.2788262E0,5.321261E-1,1.3532256E0,-1.1695147E-1,1.6021205E0,6.8619657E-1,1.2479786E0,-1.4715413E0,-1.6886681E0,-8.3124775E-1,-1.4321543E0,1.9980928E-1,-1.2027615E0,-8.9889383E-1,-1.4429879E0,-1.5696744E0,-1.2606195E0,-6.986151E-1,-2.8659716E-1,4.121647E-1,7.1154255E-1,-1.7106225E0,-1.5007306E0,-1.0346475E0,-1.8593259E0,-9.6868587E-1,-1.4228827E0,-8.0749184E-2,-1.3377935E0,1.526044E0,1.8725698E0,-4.7913972E-2,-1.2268938E0,2.5326324E-1,1.0711255E0,1.5792433E0,8.5790783E-1,6.281076E-2,-7.581542E-1,5.929867E-1,1.3269405E0,1.4331688E0,8.9221686E-1,-1.3555E0,-1.8276182E0,-1.2243986E0,-1.7346811E0,4.9009196E-2,-1.4541467E0,-1.733024E0,-1.1572866E0,-1.147287E-1,5.373003E-1,-1.8828459E0,-1.0629975E0,-1.0429589E0,-1.5181125E0,-3.701405E-1,-1.0627084E0,-3.710858E-1,2.3907948E-1,6.4152604E-1,4.6141237E-2,7.7401537E-1,1.6195045E-1,-1.7362562E0,-1.5310087E0,-1.250963E0,-1.6821288E0,-1.0657287E0,-6.0995805E-1,-8.161804E-1,-1.2423091E0,-3.8237068E-1,4.1924748E-1,6.0359395E-1,1.7980275E0,7.5943226E-1,1.7853994E0,2.6744834E-1,1.7829E0,4.1305068E-1,-2.8751817E-1,2.1863215E-1,8.379736E-1,1.1581427E0,1.7065306E0],"categories":[],"categories_nodes":[],"categories_segments":[],"categories_sizes":[],"default_left":[1,1,1,1,1,1,1,1,1,1,1,1,1,1,1,1,1,1,1,1,1,0,1,0,0,1,1,1,1,1,1,1,1,1,1,1,1,1,0,0,0,1,1,1,0,1,1,1,0,0,0,1,1,1,0,1,1,1,1,1,1,1,0,0,1,0,1,1,1,1,1,1,1,1,0,1,0,0,0,0,0,0,0,1,1,1,1,1,0,1,0,1,0,0,0,0,0,0,0,0,0,0,0,0,0,0,0,0,0,0,0,0,0,0,0,1,1,0,0,0,0,0,0,0,0,0,0,0,0,0,0,0,0,0,0,0,0],"id":4,"left_children":[1,3,5,7,9,11,13,15,17,19,21,23,25,27,29,31,33,35,37,39,41,-1,43,-1,-1,45,47,49,51,53,55,57,59,61,63,65,67,69,-1,-1,-1,71,73,75,-1,77,79,81,-1,-1,-1,83,85,87,-1,89,91,93,95,97,99,101,-1,-1,103,-1,105,107,109,111,113,-1,117,119,-1,121,-1,-1,-1,-1,-1,-1,-1,123,125,127,129,131,-1,133,-1,135,-1,-1,-1,-1,-1,-1,-1,-1,-1,-1,-1,-1,-1,-1,-1,-1,-1,-1,-1,-1,-1,-1,-1,-1,-1,-1,-1,-1,-1,-1,-1,-1,-1,-1,-1,-1,-1,-1,-1,-1,-1,-1,-1,-1,-1],"loss_changes":[1.7260585E3,4.0800537E2,1.0360858E2,6.860077E2,4.5364258E1,5.8031708E1,7.1160034E1,1.3812744E2,3.1675046E2,4.2885864E1,1.9754883E1,1.7526783E1,7.0770065E1,5.542737E1,3.4972176E1,1.2429565E1,5.0218372E1,4.9766098E1,1.2239258E1,3.499176E0,3.644409E1,0E0,6.180191E0,0E0,0E0,6.622262E1,1.2910629E1,2.425171E0,3.0662018E1,3.014583E1,9.452141E0,4.3585205E0,9.234528E0,2.6902065E1,3.2119675E0,1.8644867E0,6.1290436E0,8.615555E0,0E0,0E0,0E0,3.564148E-1,1.5828125E1,1.8748856E0,0E0,9.719513E0,1.9047546E-1,7.8447924E0,0E0,0E0,0E0,1.4564928E1,9.43071E0,9.661143E0,0E0,4.934963E0,2.9094467E0,6.167145E0,5.628723E0,2.1104986E1,6.521454E0,8.7806015E0,0E0,0E0,5.204727E0,0E0,2.3337479E0,7.913082E0,3.5558038E0,1.2026396E1,1.0222412E1,2.1636963E-2,6.824837E-1,7.533264E0,0E0,1.8118324E0,0E0,0E0,0E0,0E0,0E0,0E0,0E0,6.8060017E0,1.10705185E1,9.7517395E0,1.4865719E1,8.063443E0,0E0,6.782894E0,0E0,1.9996681E0,0E0,0E0,0E0,0E0,0E0,0E0,0E0,0E0,0E0,0E0,0E0,0E0,0E0,0E0,0E0,0E0,0E0,0E0,0E0,0E0,0E0,0E0,0E0,0E0,0E0,0E0,0E0,0E0,0E0,0E0,0E0,0E0,0E0,0E0,0E0,0E0,0E0,0E0,0E0,0E0,0E0,0E0,0E0,0E0,0E0],"parents":[2147483647,0,0,1,1,2,2,3,3,4,4,5,5,6,6,7,7,8,8,9,9,10,10,11,11,12,12,13,13,14,14,15,15,16,16,17,17,18,18,19,19,20,20,22,22,25,25,26,26,27,27,28,28,29,29,30,30,31,31,32,32,33,33,34,34,35,35,36,36,37,37,41,41,42,42,43,43,45,45,46,46,47,47,51,51,52,52,53,53,55,55,56,56,57,57,58,58,59,59,60,60,61,61,64,64,66,66,67,67,68,68,69,69,70,70,71,71,72,72,73,73,75,75,83,83,84,84,85,85,86,86,87,87,89,89,91,91],"right_children":[2,4,6,8,10,12,14,16,18,20,22,24,26,28,30,32,34,36,38,40,42,-1,44,-1,-1,46,48,50,52,54,56,58,60,62,64,66,68,70,-1,-1,-1,72,74,76,-1,78,80,82,-1,-1,-1,84,86,88,-1,90,92,94,96,98,100,102,-1,-1,104,-1,106,108,110,112,114,-1,118,120,-1,122,-1,-1,-1,-1,-1,-1,-1,124,126,128,130,132,-1,134,-1,136,-1,-1,-1,-1,-1,-1,-1,-1,-1,-1,-1,-1,-1,-1,-1,-1,-1,-1,-1,-1,-1,-1,-1,-1,-1,-1,-1,-1,-1,-1,-1,-1,-1,-1,-1,-1,-1,-1,-1,-1,-1,-1,-1,-1,-1],"split_conditions":[1.505E2,5E-1,1.5E0,5E-1,1.5E0,5E-1,5E-1,9.05E1,2.05E1,5E-1,9.05E1,5E-1,1.89E2,5E-1,2.5E0,5.95E1,1.175E2,3.5E0,5E-1,1.035E2,6.5E0,-4.7996357E-2,2.5E0,4.3590773E-2,5.8288993E-3,1.65E2,4.5E0,2.5E0,2.715E2,2.91E2,2.53E2,5E-1,6.95E1,4.5E0,1.5E0,5E-1,9.5E0,4.85E1,-1.1705806E-2,-4.866168E-2,-3.4995627E-2,4.5E0,5E-1,2.5E0,-4.975021E-2,1.635E2,1.805E2,2.46E2,-4.6631195E-2,4.7963995E-2,3.4232736E-2,5.5E0,3.085E2,5E-1,4.288696E-2,2.5E0,5.5E0,5E-1,1.5E0,1.5E0,7.45E1,1.5E0,-3.219657E-2,-2.4062375E-2,3.5E0,-4.2018414E-2,3.5E0,3.5E0,5.5E0,3.65E1,1.355E2,-4.5791436E-2,5.5E0,2.5E0,-4.9772058E-2,1.275E2,-3.8088966E-2,-2.1615645E-3,-3.5811223E-2,4.085048E-2,5.0126582E-2,-1.282603E-3,-3.284256E-2,1.735E2,2.105E2,1.5E0,3.37E2,1.875E2,-2.0294933E-2,1.795E2,3.5520703E-2,3.015E2,2.3883639E-2,-3.6285207E-2,-4.892328E-2,-3.277577E-2,-4.6435457E-2,1.3119209E-3,-3.8925868E-2,-4.63911E-2,-3.0979259E-2,-3.071158E-3,1.4382923E-2,-5.040166E-2,-2.8455244E-2,-2.7918832E-2,-4.063816E-2,-9.908244E-3,-2.8447505E-2,-9.933548E-3,6.399888E-3,1.7172929E-2,1.2351489E-3,2.0719519E-2,4.335231E-3,-4.6477623E-2,-4.098338E-2,-3.348687E-2,-4.502869E-2,-2.8528355E-2,-1.632789E-2,-2.184823E-2,-3.3255212E-2,-1.0235632E-2,1.1222783E-2,1.615753E-2,4.8131168E-2,2.0329146E-2,4.779313E-2,7.1592904E-3,4.772622E-2,1.1056901E-2,-7.6965373E-3,5.852536E-3,2.2431608E-2,3.1002173E-2,4.5681898E-2],"split_indices":[5,13,0,29,13,28,13,5,5,29,5,13,5,28,16,5,5,5,20,5,5,0,13,0,0,5,16,0,5,5,5,28,5,16,16,5,5,5,0,0,0,5,4,0,0,5,5,5,0,0,0,16,5,28,0,0,16,9,5,16,5,16,0,0,16,0,16,16,16,5,5,16,5,0,0,5,0,0,0,0,0,0,0,5,5,16,5,5,0,5,0,5,0,0,0,0,0,0,0,0,0,0,0,0,0,0,0,0,0,0,0,0,0,0,0,2147483647,2147483647,0,0,0,0,0,0,0,0,0,0,0,0,0,0,0,0,0,0,0,0],"split_type":[0,0,0,0,0,0,0,0,0,0,0,0,0,0,0,0,0,0,0,0,0,0,0,0,0,0,0,0,0,0,0,0,0,0,0,0,0,0,0,0,0,0,0,0,0,0,0,0,0,0,0,0,0,0,0,0,0,0,0,0,0,0,0,0,0,0,0,0,0,0,0,0,0,0,0,0,0,0,0,0,0,0,0,0,0,0,0,0,0,0,0,0,0,0,0,0,0,0,0,0,0,0,0,0,0,0,0,0,0,0,0,0,0,0,0,0,0,0,0,0,0,0,0,0,0,0,0,0,0,0,0,0,0,0,0,0,0],"sum_hessian":[3.3401772E3,2.6551719E3,6.850053E2,1.3984866E3,1.2566854E3,1.3170813E2,5.532972E2,7.0855426E2,6.899323E2,8.715874E2,3.8509796E2,3.6676075E1,9.503205E1,3.2653452E2,2.2676268E2,5.5900543E2,1.4954881E2,2.3738905E2,4.525433E2,1.4878156E2,7.2280585E2,3.1324585E2,7.18521E1,2.1939575E1,1.47365E1,4.660286E1,4.8429188E1,1.43475E2,1.8305951E2,9.504503E1,1.3171765E2,4.3809317E2,1.2091229E2,9.868792E1,5.0860893E1,9.127682E1,1.4611223E2,4.4130603E2,1.1237255E1,1.3158232E2,1.7199244E1,1.1994728E2,6.028586E2,5.9650955E1,1.2201141E1,2.4657326E1,2.1945536E1,2.2704758E1,2.5724432E1,1.3152505E2,1.1949944E1,9.70309E1,8.602861E1,8.358982E1,1.1455208E1,8.45915E1,4.7126152E1,1.5875308E2,2.793401E2,3.8308834E1,8.260346E1,8.246122E1,1.6226702E1,1.795313E1,3.2907764E1,4.5246708E1,4.603011E1,6.653421E1,7.9578026E1,1.4314952E2,2.9815652E2,9.756239E1,2.2384892E1,5.7847723E2,2.4381319E1,4.7172737E1,1.2478221E1,1.3448149E1,1.1209176E1,1.0229454E1,1.1716081E1,1.0212012E1,1.2492745E1,6.410277E1,3.2928135E1,5.8830963E1,2.7197643E1,6.5400116E1,1.8189701E1,7.411945E1,1.0472042E1,3.0672031E1,1.6454119E1,1.2031746E2,3.843563E1,2.558965E1,2.5375043E2,1.5936466E1,2.2372366E1,3.9028378E1,4.3575085E1,4.2737072E1,3.9724144E1,1.4957041E1,1.7950722E1,2.5385363E1,2.0644745E1,3.5148834E1,3.1385378E1,6.85998E1,1.0978226E1,8.792917E1,5.522035E1,2.6766492E2,3.04916E1,8.415574E1,1.3406655E1,9.952897E0,1.24319935E1,5.3880145E2,3.9675777E1,3.0702312E1,1.6470425E1,1.3229724E1,5.0873043E1,2.0218695E1,1.270944E1,1.1973025E1,4.685794E1,1.6727505E1,1.04701395E1,3.2689793E1,3.2710327E1,2.943932E1,4.4680134E1,1.5710034E1,1.4961997E1],"tree_param":{"num_deleted":"2","num_feature":"30","num_nodes":"137","size_leaf_vector":"0"}},{"base_weights":[-5.891128E-1,-9.413957E-1,8.508131E-1,-5.430196E-1,-1.3749013E0,8.923808E-1,-1.940935E0,-1.1767188E0,-2.581289E-1,-1.2542415E0,-1.6344175E0,-1.3942194E-1,9.959037E-1,-1.4289759E0,-9.4406134E-1,-1.0414447E0,-4.4674177E-2,-1.5392779E0,-1.1399547E0,-1.7455716E0,-1.1891999E0,-5.918193E-1,9.319537E-1,1.1916232E0,6.509517E-1,-1.5018795E0,-8.48299E-1,-1.4513805E0,-7.44313E-1,-1.480877E0,8.295212E-2,-1.569595E-1,6.1978865E-1,-1.685191E0,-1.4034051E0,-1.1185005E0,-1.7275647E0,-1.7623814E0,-1.5387437E0,-1.3106898E0,-3.3510077E-1,-9.260367E-2,-1.4624795E0,5.706016E-1,1.3588674E0,3.323472E-1,1.6686046E0,-1.4454908E0,-1.7858101E0,-5.216869E-2,-1.5696968E0,-1.2284018E0,-1.6570407E0,-1.3210416E0,-3.6789936E-1,-1.5250571E0,-1.1144867E0,6.0012424E-1,-1.1913041E0,-2.3871957E-1,8.613134E-1,-3.2798785E-1,7.6790106E-1,-1.0698583E0,-1.4608512E0,-1.1340781E0,-6.4459425E-1,-1.7941056E0,-1.1894785E0,-1.190385E0,-1.8210722E0,-1.2039423E0,1.1018798E0,1.5961366E0,-2.8493258E-1,1.25274E0,1.555949E0,2.1996483E-1,1.1970593E0,1.419062E0,1.7691134E0,-1.6798741E0,-1.3601904E0,-1.1351908E0,-1.3986797E0,-1.5532813E0,-1.196712E0,-4.5314956E-1,3.8047922E-1,-1.3405389E0,-1.6084524E0,1.3899626E0,3.4152737E-1,-3.4101266E-1,7.377992E-1,4.505284E-1,1.0110987E0,1.4184548E0,6.840097E-1,-1.632336E0,-1.4031459E0,-1.1529261E0,-9.08205E-1,-8.5128087E-1,-4.169363E-1,-1.0036467E0,-1.5645794E0,1.40782E0,1.778403E0,1.2985061E0,-8.740298E-1,1.3295877E0,-1.1170847E-1,1.7952359E0,1.0774537E0,1.2536225E-1,1.1802897E0,1.0257645E0,1.347733E0],"categories":[],"categories_nodes":[],"categories_segments":[],"categories_sizes":[],"default_left":[1,1,1,1,1,1,0,1,1,1,1,1,1,1,1,1,1,1,1,1,1,1,0,1,1,1,1,1,1,1,1,1,1,0,1,1,0,0,1,1,0,1,0,1,1,1,1,1,0,0,0,1,0,1,1,1,0,1,0,1,1,0,1,0,1,1,1,0,0,1,0,0,0,1,1,1,1,1,1,0,0,0,0,0,0,0,0,0,0,0,0,0,0,0,0,0,0,0,0,0,0,0,0,0,0,0,0,0,0,0,0,0,0,0,0,0,0,0,0],"id":5,"left_children":[1,3,5,7,9,11,-1,13,15,17,19,21,23,25,27,29,31,33,35,37,39,41,-1,43,45,47,49,51,53,55,57,59,61,-1,63,65,-1,-1,67,69,-1,71,-1,73,75,77,79,81,-1,-1,-1,83,-1,85,87,89,-1,91,-1,93,95,-1,97,-1,99,101,103,-1,-1,105,-1,-1,-1,107,109,111,113,115,117,-1,-1,-1,-1,-1,-1,-1,-1,-1,-1,-1,-1,-1,-1,-1,-1,-1,-1,-1,-1,-1,-1,-1,-1,-1,-1,-1,-1,-1,-1,-1,-1,-1,-1,-1,-1,-1,-1,-1,-1],"loss_changes":[1.6888038E3,4.6179932E2,7.622519E1,2.5163513E2,3.9775146E1,6.891327E1,0E0,2.5155334E1,1.6083163E2,2.8220581E1,1.9755615E1,2.8661423E1,3.944934E1,8.562347E0,2.266426E1,1.0179831E2,5.642892E1,4.574646E0,7.5700684E0,6.913452E-1,8.397446E0,1.8036484E1,0E0,3.869702E1,6.882323E1,2.526825E0,1.3467535E1,2.5839539E0,3.5097496E1,2.1237183E0,3.836086E1,5.3893528E1,1.538876E1,0E0,2.246704E0,4.33844E0,0E0,0E0,1.9449158E0,4.034294E0,0E0,3.549579E1,0E0,6.989715E1,5.8427734E0,1.5707037E1,8.655548E-1,2.714569E0,0E0,0E0,0E0,2.3763275E-1,0E0,1.5463943E0,6.2971706E0,1.6798401E0,0E0,8.376984E0,0E0,5.9873566E1,2.8873444E0,0E0,5.0069084E0,0E0,7.273865E-1,2.3182983E0,8.6427784E-1,0E0,0E0,3.8165207E0,0E0,0E0,0E0,8.3981323E-1,4.0781944E1,2.0172607E1,1.1408936E1,1.3024323E1,2.5743484E-1,0E0,0E0,0E0,0E0,0E0,0E0,0E0,0E0,0E0,0E0,0E0,0E0,0E0,0E0,0E0,0E0,0E0,0E0,0E0,0E0,0E0,0E0,0E0,0E0,0E0,0E0,0E0,0E0,0E0,0E0,0E0,0E0,0E0,0E0,0E0,0E0,0E0,0E0,0E0,0E0],"parents":[2147483647,0,0,1,1,2,2,3,3,4,4,5,5,7,7,8,8,9,9,10,10,11,11,12,12,13,13,14,14,15,15,16,16,17,17,18,18,19,19,20,20,21,21,23,23,24,24,25,25,26,26,27,27,28,28,29,29,30,30,31,31,32,32,34,34,35,35,38,38,39,39,41,41,43,43,44,44,45,45,46,46,47,47,51,51,53,53,54,54,55,55,57,57,59,59,60,60,62,62,64,64,65,65,66,66,69,69,73,73,74,74,75,75,76,76,77,77,78,78],"right_children":[2,4,6,8,10,12,-1,14,16,18,20,22,24,26,28,30,32,34,36,38,40,42,-1,44,46,48,50,52,54,56,58,60,62,-1,64,66,-1,-1,68,70,-1,72,-1,74,76,78,80,82,-1,-1,-1,84,-1,86,88,90,-1,92,-1,94,96,-1,98,-1,100,102,104,-1,-1,106,-1,-1,-1,108,110,112,114,116,118,-1,-1,-1,-1,-1,-1,-1,-1,-1,-1,-1,-1,-1,-1,-1,-1,-1,-1,-1,-1,-1,-1,-1,-1,-1,-1,-1,-1,-1,-1,-1,-1,-1,-1,-1,-1,-1,-1,-1,-1],"split_conditions":[1.525E2,5E-1,2.5E0,1.75E1,1.5E0,2.0175E3,-5.1956642E-2,1.5E0,2.0175E3,1.45E1,8.95E1,5E-1,5E-1,2.75E1,2.0175E3,9.55E1,5E-1,4.5E0,5E-1,2.85E1,1.425E2,2.095E2,2.494735E-2,1.5E0,5E-1,5E-1,1.5E0,4.5E0,3.5E0,8.4E1,1.325E2,5E-1,2.85E1,-4.5110665E-2,5.5E0,1.5E0,-4.624496E-2,-4.7176965E-2,2.85E1,2.5E0,-8.97027E-3,1.68E2,-3.9148927E-2,1.89E2,2.715E2,5E-1,1.35E1,2.0175E3,-4.7804125E-2,-1.396497E-3,-4.2019013E-2,1.85E1,-4.435711E-2,1.25E1,5E-1,3.45E1,-2.9833551E-2,1.01E2,-3.1889867E-2,2.5E0,1.25E1,-8.779865E-3,3.55E1,-2.8638901E-2,1.5E0,2.5E0,6.25E1,-4.8026185E-2,-3.1841E-2,1.245E2,-4.874805E-2,-3.222818E-2,2.9496081E-2,1.75E2,1.1E1,2.675E2,3.085E2,2.5E0,1.77E2,3.7986692E-2,4.735717E-2,-4.4968333E-2,-3.6410764E-2,-3.038778E-2,-3.744108E-2,-4.157959E-2,-3.203463E-2,-1.2130302E-2,1.0185E-2,-3.5884716E-2,-4.305646E-2,3.720773E-2,9.142303E-3,-9.128524E-3,1.9750053E-2,1.2060137E-2,2.7065974E-2,3.7970435E-2,1.8310167E-2,-4.3695796E-2,-3.7560634E-2,-3.086253E-2,-2.4311623E-2,-2.278783E-2,-1.1160915E-2,-2.6866492E-2,-4.1882027E-2,3.7685752E-2,4.7605846E-2,3.4759544E-2,-2.3396792E-2,3.5591565E-2,-2.9903098E-3,4.805644E-2,2.8842222E-2,3.355806E-3,3.1595025E-2,2.7458558E-2,3.6077294E-2],"split_indices":[5,13,13,5,13,6,0,0,6,5,5,17,13,8,6,5,19,5,4,8,5,5,0,0,17,14,5,5,5,5,5,1,5,0,8,1,0,0,5,13,0,5,0,5,5,1,8,6,0,0,0,8,0,8,1,5,0,5,0,0,8,0,5,0,0,0,5,0,0,5,0,0,0,5,8,5,5,0,5,0,0,0,0,0,0,0,0,0,0,0,0,0,0,0,0,0,0,0,0,0,0,0,0,0,0,0,0,0,0,0,0,0,0,0,0,0,0,0,0],"split_type":[0,0,0,0,0,0,0,0,0,0,0,0,0,0,0,0,0,0,0,0,0,0,0,0,0,0,0,0,0,0,0,0,0,0,0,0,0,0,0,0,0,0,0,0,0,0,0,0,0,0,0,0,0,0,0,0,0,0,0,0,0,0,0,0,0,0,0,0,0,0,0,0,0,0,0,0,0,0,0,0,0,0,0,0,0,0,0,0,0,0,0,0,0,0,0,0,0,0,0,0,0,0,0,0,0,0,0,0,0,0,0,0,0,0,0,0,0,0,0],"sum_hessian":[3.3288428E3,2.6745583E3,6.542843E2,1.3939402E3,1.2806183E3,6.447933E2,9.491018E0,4.3215897E2,9.617812E2,8.7481866E2,4.057996E2,5.8789368E1,5.860039E2,2.069484E2,2.2521056E2,2.0582808E2,7.559531E2,2.4979901E2,6.2501965E2,3.243508E2,8.1448784E1,4.138593E1,1.740344E1,3.7362198E2,2.1238194E2,1.8363728E2,2.331112E1,6.3337345E1,1.618732E2,1.4795415E2,5.787394E1,6.467792E2,1.0917397E2,1.1956346E2,1.3023557E2,6.0345465E2,2.1564983E1,2.9885025E2,2.550054E1,7.1230576E1,1.0218209E1,2.6417192E1,1.4968736E1,7.942112E1,2.9420087E2,1.6190637E2,5.047556E1,1.5402858E2,2.960871E1,1.1163695E1,1.2147424E1,3.092817E1,3.2409176E1,6.3767075E1,9.810613E1,1.3157864E2,1.6375498E1,4.122679E1,1.664715E1,5.988214E2,4.7957752E1,1.4728718E1,9.444525E1,1.9599205E1,1.1063635E2,5.8403265E2,1.9422005E1,1.4345487E1,1.1155054E1,5.8077667E1,1.3152906E1,1.3684219E1,1.2732973E1,3.60583E1,4.3362816E1,1.9199683E2,1.0220403E2,1.4346326E2,1.844312E1,1.5192226E1,3.5283333E1,4.0295483E1,1.1373309E2,2.078536E1,1.0142809E1,2.1588835E1,4.2178238E1,8.813046E1,9.975667E0,4.1813675E1,8.976497E1,9.994745E0,3.1232044E1,5.42136E2,5.668542E1,1.2986932E1,3.4970818E1,1.0495175E1,8.395008E1,2.6749048E1,8.388731E1,5.384413E2,4.559137E1,9.948557E0,9.473449E0,3.9138973E1,1.8938696E1,1.8426098E1,1.7632202E1,1.17055E1,3.1657316E1,1.8176375E2,1.0233079E1,6.783675E1,3.4367283E1,1.3076373E2,1.2699525E1,9.219637E0,9.223482E0],"tree_param":{"num_deleted":"0","num_feature":"30","num_nodes":"119","size_leaf_vector":"0"}},{"base_weights":[-5.9912664E-1,-1.0240849E0,-3.8496202E-1,-1.1336727E0,-5.579108E-1,-1.1594101E0,-2.5381E-1,-1.0843529E0,-1.7284843E0,-7.330946E-1,5.3631563E-2,1.1409267E0,-1.3026358E0,-2.038326E-1,-1.3102001E0,-9.409595E-1,-1.2582456E0,-1.4145708E0,-6.391333E-1,-7.306722E-1,4.6323714E-1,-1.5136197E0,-7.615551E-1,-2.6780564E-1,4.2124832E-1,-1.4700884E0,-7.616382E-1,-1.6417178E0,-8.4097433E-1,-1.4116949E0,-1.0835894E0,-6.359753E-3,-7.2554564E-1,6.434015E-1,2.6284638E-1,-7.3538804E-1,-1.5540187E0,-3.446555E-1,-1.2488546E0,-2.3090963E-1,-1.2914512E0,-1.3651491E0,8.0531204E-1,-1.5569701E0,-1.1783537E0,-9.8426014E-1,-5.4349184E-1,-1.7286514E0,-1.3905767E0,-1.649195E0,-7.529964E-1,-1.2327644E0,-1.611452E0,-1.2344111E0,-8.9542377E-1,-1.2456143E0,-6.5393764E-1,-1.3906708E0,-1.7113603E0,-8.0173934E-1,8.501248E-1,-1.8169781E0,-7.0697296E-1,-4.3353185E-1,-8.031606E-2,-1.7329264E0,-1.0619211E0,-1.7046928E0,-1.049949E0,1.2721989E0,-1.0632211E-1,-1.1920353E0,-1.6379702E0,-1.8050147E0,-1.5014392E0,4.7796327E-1,-8.558113E-1,-1.6285236E0,-9.9453574E-1,-1.71374E0,-1.4143063E0,-1.7236955E0,-1.0802836E0,-2.5073388E-1,-9.8098356E-1,-4.224771E-1,-7.836229E-1,-1.6394123E0,-1.3436666E0,-1.5509955E0,-1.738836E0,1.655451E-2,-1.4083889E0,-1.0497377E0,-3.1613392E-1,-1.7740879E0,-4.1026306E-1,7.425894E-2,-5.123924E-1,-1.800418E-1,-1.3917599E0,1.8914148E-1,1.5643207E0,-1.1015671E0,1.722205E-1,-1.5196383E0,-1.8513958E0],"categories":[],"categories_nodes":[],"categories_segments":[],"categories_sizes":[],"default_left":[1,1,1,1,1,1,1,1,0,1,1,0,1,1,1,1,1,0,1,0,1,1,1,1,1,1,1,1,1,1,1,0,1,0,0,0,1,1,1,1,1,1,1,1,0,0,0,0,0,1,1,1,1,1,1,0,1,1,1,1,0,0,1,1,1,0,1,0,0,1,1,0,1,0,0,0,0,0,0,0,0,0,0,0,0,0,0,0,0,1,1,0,0,0,0,0,0,0,0,0,0,0,0,0,0,0,0],"id":6,"left_children":[1,3,5,7,9,11,13,15,-1,17,19,-1,21,23,25,27,29,-1,31,-1,33,35,37,39,41,43,45,47,49,51,53,-1,55,-1,-1,-1,57,59,61,63,65,67,69,71,-1,-1,-1,-1,-1,73,75,77,79,81,83,-1,85,87,-1,91,-1,-1,93,95,97,-1,99,-1,-1,101,103,-1,105,-1,-1,-1,-1,-1,-1,-1,-1,-1,-1,-1,-1,-1,-1,-1,-1,-1,-1,-1,-1,-1,-1,-1,-1,-1,-1,-1,-1,-1,-1,-1,-1,-1,-1],"loss_changes":[2.9749475E2,5.5862793E1,2.2078299E2,2.5713501E1,2.237825E1,1.0396362E2,9.813025E1,2.0239685E1,0E0,1.02491E1,1.5041128E1,0E0,3.365634E1,7.102503E1,7.1843567E0,3.128537E1,9.664856E0,0E0,7.8161926E0,0E0,1.0827136E0,6.516327E0,1.68919E1,6.0794266E1,1.1332778E2,1.347992E0,8.503723E-1,8.349304E-1,2.7806244E1,6.6972046E0,4.7499847E0,0E0,4.552994E0,0E0,0E0,0E0,4.8199463E0,2.4803646E1,1.1624859E1,4.744555E1,5.3789825E0,2.8412971E0,5.7839127E1,1.1475449E0,0E0,0E0,0E0,0E0,0E0,4.5044708E-1,4.5058487E1,9.567596E0,1.4695892E0,6.9368286E0,4.2543297E0,0E0,3.2754707E0,8.165436E-1,1.6784668E-2,1.628041E1,0E0,0E0,2.6170778E0,2.056292E1,5.9599277E1,0E0,1.0799496E1,0E0,0E0,2.8377853E1,1.2825765E1,0E0,5.5812836E-1,0E0,0E0,0E0,0E0,0E0,0E0,0E0,0E0,0E0,0E0,0E0,0E0,0E0,0E0,0E0,0E0,0E0,0E0,0E0,0E0,0E0,0E0,0E0,0E0,0E0,0E0,0E0,0E0,0E0,0E0,0E0,0E0,0E0,0E0],"parents":[2147483647,0,0,1,1,2,2,3,3,4,4,5,5,6,6,7,7,9,9,10,10,12,12,13,13,14,14,15,15,16,16,18,18,20,20,21,21,22,22,23,23,24,24,25,25,26,26,27,27,28,28,29,29,30,30,32,32,36,36,37,37,38,38,39,39,40,40,41,41,42,42,43,43,49,49,50,50,51,51,52,52,53,53,54,54,56,56,57,57,58,58,59,59,62,62,63,63,64,64,66,66,69,69,70,70,72,72],"right_children":[2,4,6,8,10,12,14,16,-1,18,20,-1,22,24,26,28,30,-1,32,-1,34,36,38,40,42,44,46,48,50,52,54,-1,56,-1,-1,-1,58,60,62,64,66,68,70,72,-1,-1,-1,-1,-1,74,76,78,80,82,84,-1,86,88,-1,92,-1,-1,94,96,98,-1,100,-1,-1,102,104,-1,106,-1,-1,-1,-1,-1,-1,-1,-1,-1,-1,-1,-1,-1,-1,-1,-1,-1,-1,-1,-1,-1,-1,-1,-1,-1,-1,-1,-1,-1,-1,-1,-1,-1,-1],"split_conditions":[8.863E1,5E-1,2.0175E3,5E-1,2.45E1,7.5E0,1.15E1,8.5E0,-4.6269577E-2,6.3665E1,6.5E0,3.0541321E-2,5E-1,5E-1,5E-1,1.5E0,2.0175E3,-3.7866466E-2,6.7535E1,-1.955927E-2,2.75E1,8.9835E1,1.085E2,5E-1,1.045E2,2.5E0,1.85E1,2.45E1,5.845E1,1.05E1,1.75E1,-1.7024342E-4,1.5E0,1.7223133E-2,7.036101E-3,-1.9685509E-2,9.5E0,9.5E0,1.099E2,6.5E0,5.5E0,1.25E1,1.3735E2,9.443E1,-3.15432E-2,-2.6347535E-2,-1.4548664E-2,-4.6274047E-2,-3.722417E-2,1.9175E1,6.2855E1,1.5E0,7.2235E1,6.8604996E1,6.478E1,-3.334369E-2,4.5E0,1.5E0,-4.5811187E-2,9.6475006E1,2.2756882E-2,-4.8638456E-2,2.25E1,1.5E0,1.3785E2,-4.6388485E-2,1.1666499E2,-4.5632705E-2,-2.8105952E-2,5.5E0,1.49995E2,-3.190944E-2,2.65E1,-4.831821E-2,-4.0191837E-2,1.27945375E-2,-2.2909103E-2,-4.3593742E-2,-2.66226E-2,-4.5874886E-2,-3.7859384E-2,-4.6141386E-2,-2.8917976E-2,-6.7118634E-3,-2.6259825E-2,-1.1309235E-2,-2.0976702E-2,-4.388522E-2,-3.5968438E-2,-4.15184E-2,-4.654668E-2,4.4314557E-4,-3.770098E-2,-2.8100295E-2,-8.462548E-3,-4.7490332E-2,-1.098228E-2,1.987828E-3,-1.3716167E-2,-4.819516E-3,-3.7255842E-2,5.0631044E-3,4.18751E-2,-2.948771E-2,4.6101487E-3,-4.0679004E-2,-4.955978E-2],"split_indices":[12,19,6,9,8,7,7,7,0,12,7,0,17,17,1,7,6,0,12,0,8,12,12,4,12,0,8,8,12,7,8,0,0,0,0,0,7,7,12,7,7,8,12,12,0,0,0,0,0,12,12,0,12,12,12,0,7,0,8,12,0,0,8,7,12,0,12,0,0,7,12,0,8,0,0,0,0,0,0,0,0,0,0,0,0,0,0,0,0,2147483647,2147483647,0,0,0,0,0,0,0,0,0,0,0,0,0,0,0,0],"split_type":[0,0,0,0,0,0,0,0,0,0,0,0,0,0,0,0,0,0,0,0,0,0,0,0,0,0,0,0,0,0,0,0,0,0,0,0,0,0,0,0,0,0,0,0,0,0,0,0,0,0,0,0,0,0,0,0,0,0,0,0,0,0,0,0,0,0,0,0,0,0,0,0,0,0,0,0,0,0,0,0,0,0,0,0,0,0,0,0,0,0,0,0,0,0,0,0,0,0,0,0,0,0,0,0,0,0,0],"sum_hessian":[3.2693137E3,1.0953151E3,2.1739988E3,8.866511E2,2.0866397E2,3.146628E2,1.8593358E3,8.1918207E2,6.746906E1,1.6217496E2,4.6489017E1,1.8377691E1,2.9628513E2,1.7755286E3,8.380732E1,4.4952936E2,3.696527E2,1.9376677E1,1.4279828E2,1.5906094E1,3.0582924E1,2.1295706E2,8.3328064E1,1.6107688E3,1.647598E2,6.468349E1,1.9123833E1,5.58205E1,3.9370886E2,1.9616501E2,1.7348772E2,1.7178421E1,1.2561986E2,1.5916648E1,1.4666277E1,1.0662027E1,2.0229504E2,4.505619E1,3.827187E1,1.554921E3,5.5847702E1,2.9081465E1,1.3567833E2,4.9302067E1,1.5381421E1,9.184791E0,9.939042E0,4.0762524E1,1.5057976E1,3.8368896E1,3.5533997E2,1.0408615E2,9.207886E1,9.5802605E1,7.768511E1,1.4883529E1,1.1073633E2,1.0003077E2,1.02264275E2,3.262712E1,1.2429069E1,1.8498466E1,1.9773403E1,6.628116E2,8.9210944E2,1.8742794E1,3.7104908E1,1.3658195E1,1.5423271E1,8.968372E1,4.59946E1,9.415218E0,3.988685E1,1.7795301E1,2.0573593E1,2.7346302E1,3.2799365E2,3.875833E1,6.532782E1,5.9808254E1,3.2270603E1,2.2556221E1,7.324638E1,9.17618E0,6.850893E1,4.001107E1,7.072526E1,1.5030856E1,8.499991E1,1.6312227E1,8.595205E1,1.3957256E1,1.8669867E1,1.0389889E1,9.383515E0,1.1101673E1,6.517099E2,6.5714844E2,2.3496097E2,1.0168028E1,2.693688E1,1.9107407E1,7.0576324E1,9.953665E0,3.604093E1,2.6501556E1,1.3385289E1],"tree_param":{"num_deleted":"2","num_feature":"30","num_nodes":"107","size_leaf_vector":"0"}},{"base_weights":[-5.691167E-1,-9.0615416E-1,7.8762496E-1,-1.3321077E0,-7.026098E-1,1.020774E-1,1.6504674E0,-1.5045563E0,-7.010948E-1,-1.1671968E0,-4.7344857E-1,-2.803122E-1,5.684162E-1,1.772109E0,-1.2998817E0,-1.5169997E0,-6.1364E-1,-2.6589063E-1,-1.2917098E0,-9.8490876E-1,-1.426069E0,-5.9465253E-1,-2.5950843E-1,-8.2900983E-1,2.0279151E-1,3.684212E-1,1.5062423E0,1.7962569E0,1.5945144E0,-1.4156346E0,-1.6136693E0,-6.7353153E-1,4.0128016E-1,-1.6514012E0,-9.422858E-1,-1.3562754E0,-6.879458E-1,-1.590685E0,-1.171932E0,-4.2585322E-1,-9.594059E-1,-3.7508777E-1,7.7223675E-3,5.706559E-2,-1.0770414E0,-1.867676E0,4.061652E-1,2.8359823E-2,7.74797E-1,1.316048E0,1.8035431E0,1.7482681E0,1.3241663E0,-1.4875554E0,-1.1095697E0,-1.6448085E0,-1.3077052E0,1.2619129E-1,-9.293614E-1,9.477084E-1,-2.1319072E-1,-1.4367089E0,-1.7234764E0,-3.0345118E-1,-1.4212664E0,-1.3893394E0,-8.4426826E-1,-1.7752407E0,-5.456682E-1,-1.502508E0,-1.7645491E0,-6.286603E-1,-1.3804864E0,-1.5259744E0,-3.9046842E-1,-1.5080502E0,-7.919884E-1,5.5063343E-1,-4.4137642E-1,-4.4945082E-1,2.7376178E-1,-1.4563828E0,1.2798809E0,-6.784243E-1,-1.4110557E0,2.2923338E-1,1.6051991E0,-1.7812796E-1,5.522271E-1,3.2573092E-1,9.385376E-1,-1.3820144E0,-1.6211858E0,-1.7049729E0,-8.833371E-1,-1.5877784E0,-1.7037129E0,-4.7922316E-1,-1.6494346E0,-8.34917E-2,-1.2319806E0,4.7428474E-1,1.4640113E0,-1.7638191E0,-9.225268E-1,-1.4706644E0,-1.1611588E0,-7.577398E-1,-1.5737283E-1,-1.6373866E0,-1.3422409E0,-1.2508444E0,1.6379644E-1,-1.7356507E0,-1.2384856E0,-3.1055346E-1,-5.9141636E-1,-1.1569896E0,-1.7094678E0,-9.4292724E-1,-4.911957E-1,1.2767636E0,-1.0271697E-1,-6.600876E-1,-2.3275052E-1,-7.2830135E-1,3.7275022E-1,-2.8760788E-1,4.813961E-1,-1.2189337E0,6.083995E-1,-1.1561353E0,-1.6871357E0,1.1773475E0,-1.13701716E-1,-3.2012245E-1,4.3552047E-1,-2.9746449E-2,1.0272806E0,1.1672007E0,4.7771344E-1],"categories":[],"categories_nodes":[],"categories_segments":[],"categories_sizes":[],"default_left":[1,1,1,1,1,1,1,1,1,1,1,1,1,1,0,1,0,1,1,1,1,1,1,1,1,1,1,0,1,1,1,1,1,1,1,1,1,1,1,1,1,1,1,1,1,0,1,1,1,0,0,0,0,1,1,1,1,0,1,1,0,0,0,0,1,1,0,0,1,1,0,1,1,0,1,1,1,1,1,1,1,0,0,1,1,1,0,1,1,0,1,0,0,0,0,0,0,0,0,0,0,0,0,0,0,0,0,0,0,0,0,0,0,0,0,0,0,0,0,0,0,0,0,0,0,0,0,0,0,0,0,0,0,0,0,0,0,0,0,0,0],"id":7,"left_children":[1,3,5,7,9,11,13,15,17,19,21,23,25,27,-1,29,-1,31,33,35,37,39,41,43,45,47,49,-1,51,53,55,57,59,61,63,65,67,69,71,73,75,77,79,81,83,-1,85,87,89,-1,-1,-1,-1,91,93,95,97,-1,99,101,-1,-1,-1,-1,103,105,-1,-1,107,109,-1,111,113,-1,115,117,119,121,123,125,127,-1,-1,129,131,133,-1,135,137,-1,139,-1,-1,-1,-1,-1,-1,-1,-1,-1,-1,-1,-1,-1,-1,-1,-1,-1,-1,-1,-1,-1,-1,-1,-1,-1,-1,-1,-1,-1,-1,-1,-1,-1,-1,-1,-1,-1,-1,-1,-1,-1,-1,-1,-1,-1,-1,-1,-1,-1,-1],"loss_changes":[1.5116361E3,2.2941772E2,3.8909528E2,9.297583E1,1.9069855E2,6.54259E1,1.0489465E2,7.3011475E0,4.724562E1,2.7702026E1,3.1100494E1,5.3472504E1,3.0912636E1,7.384033E-1,0E0,6.126465E0,0E0,2.891388E1,9.556519E0,3.8206757E1,9.915253E0,4.7104095E1,1.3417084E1,2.076403E1,4.532458E1,1.885299E1,1.2574539E0,0E0,1.078682E0,6.8843994E0,2.8744507E0,1.3512518E1,1.3584589E1,1.9273376E-1,1.2156376E1,2.424469E0,2.9792122E1,1.8378601E0,1.0805618E1,2.0303276E1,2.2058609E1,1.8647308E1,1.599046E1,3.880502E1,9.670303E0,0E0,2.0705683E1,8.069694E0,4.5212517E0,0E0,0E0,0E0,0E0,3.34198E0,8.168152E0,5.928955E-1,8.936825E0,0E0,1.2779152E1,5.1172943E0,0E0,0E0,0E0,0E0,3.6315231E0,2.4112244E0,0E0,0E0,1.4096867E1,1.7884064E0,0E0,1.3391626E1,3.1674957E0,0E0,8.1269455E0,3.6736145E0,8.3676605E0,9.668331E0,1.2891148E1,1.1132239E1,9.709141E0,0E0,0E0,2.3734085E1,2.5007858E0,2.7815256E1,0E0,4.686431E0,5.835394E0,0E0,4.7008667E0,0E0,0E0,0E0,0E0,0E0,0E0,0E0,0E0,0E0,0E0,0E0,0E0,0E0,0E0,0E0,0E0,0E0,0E0,0E0,0E0,0E0,0E0,0E0,0E0,0E0,0E0,0E0,0E0,0E0,0E0,0E0,0E0,0E0,0E0,0E0,0E0,0E0,0E0,0E0,0E0,0E0,0E0,0E0,0E0,0E0,0E0,0E0,0E0,0E0,0E0],"parents":[2147483647,0,0,1,1,2,2,3,3,4,4,5,5,6,6,7,7,8,8,9,9,10,10,11,11,12,12,13,13,15,15,17,17,18,18,19,19,20,20,21,21,22,22,23,23,24,24,25,25,26,26,28,28,29,29,30,30,31,31,32,32,33,33,34,34,35,35,36,36,37,37,38,38,39,39,40,40,41,41,42,42,43,43,44,44,46,46,47,47,48,48,53,53,54,54,55,55,56,56,58,58,59,59,64,64,65,65,68,68,69,69,71,71,72,72,74,74,75,75,76,76,77,77,78,78,79,79,80,80,83,83,84,84,85,85,87,87,88,88,90,90],"right_children":[2,4,6,8,10,12,14,16,18,20,22,24,26,28,-1,30,-1,32,34,36,38,40,42,44,46,48,50,-1,52,54,56,58,60,62,64,66,68,70,72,74,76,78,80,82,84,-1,86,88,90,-1,-1,-1,-1,92,94,96,98,-1,100,102,-1,-1,-1,-1,104,106,-1,-1,108,110,-1,112,114,-1,116,118,120,122,124,126,128,-1,-1,130,132,134,-1,136,138,-1,140,-1,-1,-1,-1,-1,-1,-1,-1,-1,-1,-1,-1,-1,-1,-1,-1,-1,-1,-1,-1,-1,-1,-1,-1,-1,-1,-1,-1,-1,-1,-1,-1,-1,-1,-1,-1,-1,-1,-1,-1,-1,-1,-1,-1,-1,-1,-1,-1,-1,-1],"split_conditions":[1.515E2,5E-1,1.0004E2,9.05E1,2.05E1,5E-1,1.15E1,1.6631E2,1.165E2,8.5E0,8.05E1,2.32E2,2.715E2,5E-1,-3.479637E-2,8.5E0,-1.6426452E-2,9.3575E1,8.9875E1,4.5E0,1.2883499E2,9.5E0,8.5E0,5.5E0,2.0175E3,3.5E0,3.065E2,4.808377E-2,2.05E1,5.95E1,7.45E1,6.5E0,1.085E2,1.27E2,9.628E1,1.745E2,1.5E0,1.15E1,1.5E0,6.3565002E1,2.0175E3,2.0175E3,9.355E1,8.2875E1,1.81E2,-4.9995583E-2,9.4E1,2.55E1,1.805E2,3.522912E-2,4.8278816E-2,4.6799168E-2,3.544644E-2,3.5E0,1.05E1,8.0165E1,7.95E1,3.3779985E-3,6.65E1,1.65E1,-5.706875E-3,-3.8459077E-2,-4.613552E-2,-8.123046E-3,1.34E2,2.5E0,-2.2600109E-2,-4.7521193E-2,1.35E1,2.0175E3,-4.723499E-2,9.5E0,2.0175E3,-4.0848613E-2,7.5E0,1.35E1,1.85E1,7.5E0,1.08600006E2,2.55E1,9.55E1,-3.8985725E-2,3.426097E-2,1.705E2,1.55E1,5.5E0,4.296937E-2,2.5E0,2.015E2,8.71945E-3,2.285E2,-3.6994968E-2,-4.3397315E-2,-4.56402E-2,-2.3645937E-2,-4.250304E-2,-4.5606475E-2,-1.2828263E-2,-4.4153504E-2,-2.2349786E-3,-3.2978732E-2,1.2696068E-2,3.918993E-2,-4.7215447E-2,-2.4695002E-2,-3.9368026E-2,-3.1082911E-2,-2.0283839E-2,-4.2126933E-3,-4.383099E-2,-3.5930276E-2,-3.348369E-2,4.384646E-3,-4.646141E-2,-3.3152863E-2,-8.313166E-3,-1.5831549E-2,-3.0971307E-2,-4.5760524E-2,-2.52411E-2,-1.3148756E-2,3.417752E-2,-2.7496174E-3,-1.76698E-2,-6.230469E-3,-1.9495806E-2,9.978103E-3,-7.6989387E-3,1.2886431E-2,-3.2629482E-2,1.6286168E-2,-3.094844E-2,-4.516272E-2,3.1516265E-2,-3.0436667E-3,-8.569317E-3,1.1658392E-2,-7.962789E-4,2.7499143E-2,3.1244647E-2,1.278785E-2],"split_indices":[5,29,12,5,5,29,7,12,5,7,5,5,5,22,0,7,0,12,12,5,12,7,7,7,6,16,5,0,8,5,5,8,12,5,12,12,7,7,16,12,6,6,12,12,5,0,12,8,5,0,0,0,0,16,8,12,5,0,12,8,0,0,0,0,5,5,0,0,5,6,0,5,6,0,7,8,8,7,12,8,5,0,0,5,8,8,0,16,5,0,5,0,0,0,0,0,0,0,0,0,0,0,0,0,0,0,0,0,0,0,0,0,0,0,0,0,0,0,0,0,0,0,0,0,0,0,0,0,0,0,0,0,0,0,0,0,0,0,0,0,0],"split_type":[0,0,0,0,0,0,0,0,0,0,0,0,0,0,0,0,0,0,0,0,0,0,0,0,0,0,0,0,0,0,0,0,0,0,0,0,0,0,0,0,0,0,0,0,0,0,0,0,0,0,0,0,0,0,0,0,0,0,0,0,0,0,0,0,0,0,0,0,0,0,0,0,0,0,0,0,0,0,0,0,0,0,0,0,0,0,0,0,0,0,0,0,0,0,0,0,0,0,0,0,0,0,0,0,0,0,0,0,0,0,0,0,0,0,0,0,0,0,0,0,0,0,0,0,0,0,0,0,0,0,0,0,0,0,0,0,0,0,0,0,0],"sum_hessian":[3.3053513E3,2.6476772E3,6.576741E2,8.558219E2,1.7918552E3,3.6659018E2,2.9108392E2,6.7195984E2,1.8386209E2,5.916736E2,1.2001816E3,2.0146043E2,1.6512975E2,2.7961966E2,1.1464252E1,6.6259216E2,9.367663E0,1.0599304E2,7.786904E1,3.4764743E2,2.4402615E2,7.659563E2,4.3422534E2,9.427256E1,1.07187874E2,1.3628984E2,2.8839918E1,2.4485745E2,3.4762196E1,3.2467105E2,3.379211E2,6.57924E1,4.020065E1,3.8074966E1,3.9794075E1,1.5421693E2,1.934305E2,1.4758281E2,9.644333E1,5.2387054E2,2.4208572E2,3.0307715E2,1.311482E2,2.0644733E1,7.362783E1,9.469023E0,9.771886E1,7.429283E1,6.1997E1,1.8121332E1,1.0718587E1,2.1598072E1,1.3164125E1,2.6239102E2,6.228003E1,3.0606653E2,3.1854586E1,1.5965612E1,4.9826782E1,2.1232197E1,1.896845E1,1.0417311E1,2.7657656E1,1.7164421E1,2.2629656E1,1.446028E2,9.614134E0,2.2168465E1,1.7126204E2,9.895181E1,4.8631004E1,2.6932516E1,6.951081E1,1.6113438E1,5.077571E2,5.629878E1,1.8578694E2,2.0173729E1,2.829034E2,4.820303E1,8.294517E1,9.212221E0,1.1432513E1,3.379034E1,3.9837486E1,8.532068E1,1.2398176E1,5.336485E1,2.0927986E1,1.6694149E1,4.5302853E1,1.4762465E2,1.1476639E2,1.6858479E1,4.542155E1,1.5779575E2,1.4827078E2,9.41532E0,2.2439266E1,1.3183189E1,3.6643593E1,1.1237286E1,9.994912E0,1.317317E1,9.456485E0,1.0596055E2,3.8642254E1,1.1066686E2,6.0595177E1,5.2925533E1,4.6026276E1,1.5034915E1,1.1897601E1,1.9337317E1,5.01735E1,3.635765E2,1.441806E2,2.0921041E1,3.5377735E1,1.2348019E2,6.230676E1,9.481885E0,1.0691845E1,1.379432E2,1.449602E2,3.600895E1,1.219408E1,2.2378788E1,6.0566376E1,2.3801435E1,9.988906E0,2.1147024E1,1.8690462E1,2.2559185E1,6.276149E1,4.339953E1,9.965321E0,9.473416E0,1.145457E1,3.0113455E1,1.5189396E1],"tree_param":{"num_deleted":"0","num_feature":"30","num_nodes":"141","size_leaf_vector":"0"}},{"base_weights":[-5.611892E-1,-1.6738863E-1,-1.0366688E0,-7.3648113E-1,4.5791167E-1,-1.0011193E0,-1.7856658E0,-1.1853487E0,-5.5371344E-1,-6.6861016E-1,6.018919E-1,-1.3007095E0,-9.353675E-1,-1.5985766E-2,-1.229742E0,-4.516117E-1,-1.0901979E0,-1.1208949E0,-5.3408957E-1,-5.183328E-2,7.6106364E-1,-1.5987306E0,-1.2395141E0,-1.3091215E0,-8.739703E-1,-1.5631744E0,-1.1555996E0,5.1609725E-1,-4.9882445E-1,-1.286203E0,-3.398076E-3,-8.9256006E-1,-1.4195981E0,-4.4364244E-1,-1.0017049E0,8.5491344E-2,-3.7841347E-1,5.4256743E-1,8.329229E-1,-1.4629343E0,-1.6981763E0,-9.184171E-1,-1.2966001E0,-1.3889015E0,-9.932485E-1,-8.872932E-1,5.788446E-1,-1.4401131E0,-1.6784738E0,-9.5276123E-1,-1.3486232E0,8.1429636E-1,1.702209E-1,-1.1372093E0,-4.18153E-1,-1.1362324E0,-1.7037998E0,-7.615894E-1,-1.05302215E-1,-5.718439E-1,1.4824481E-1,-3.0312613E-1,-4.9025965E-1,6.719552E-1,2.4517041E-1,8.083264E-1,1.2792262E0,-1.6833386E0,-1.1957141E0,-1.1055557E0,-5.3793746E-1,-1.3999636E0,-1.2381868E0,-1.2814641E0,-1.5877393E0,-8.2526726E-1,-1.154374E0,-7.0315766E-1,-9.5337296E-1,-1.2578853E0,-4.2762777E-1,-1.5703642E0,-1.1075414E0,-6.087197E-1,-1.3737546E0,-2.0199063E-1,-7.0193803E-1,-1.2954866E0,-8.3709985E-1,-4.6339822E-1,-9.519207E-1,1.01441726E-1,-5.133399E-1,2.882643E-1,-5.3233184E-2,-4.5686272E-1,-1.876088E-1,2.2120921E-1,8.1463075E-1,7.653842E-1,7.863019E-2,7.8788924E-1,1.295806E0,1.5034982E0,9.719692E-1,-1.274718E0,-1.4728342E0,-1.1138979E0,-1.2770929E0,-1.6139315E0,-1.1641593E0,-1.6326755E0,-1.3794292E0,-6.7813145E-3,-9.2002666E-1,-1.3898927E0,-8.894284E-1],"categories":[],"categories_nodes":[],"categories_segments":[],"categories_sizes":[],"default_left":[1,1,1,1,1,1,0,1,1,1,1,1,1,0,1,1,1,1,1,1,1,1,1,1,1,1,1,1,1,1,0,0,0,1,0,1,1,1,1,1,0,1,1,1,1,1,0,0,0,1,1,0,0,1,1,1,0,1,1,0,1,1,0,1,1,1,1,0,0,0,0,1,1,1,1,0,0,1,1,0,0,0,0,0,0,0,0,0,0,0,0,0,0,0,0,0,0,0,0,0,0,0,0,0,0,0,0,0,0,0,0,0,0,0,0,0,0],"id":8,"left_children":[1,3,5,7,9,11,-1,13,15,17,19,21,23,-1,25,27,29,31,33,35,37,39,41,43,45,47,49,51,53,55,-1,-1,-1,57,-1,59,61,63,65,67,-1,69,71,73,75,77,-1,-1,-1,79,81,-1,-1,83,85,87,-1,89,91,-1,93,95,-1,97,99,101,103,-1,-1,-1,-1,105,107,109,111,-1,-1,113,115,-1,-1,-1,-1,-1,-1,-1,-1,-1,-1,-1,-1,-1,-1,-1,-1,-1,-1,-1,-1,-1,-1,-1,-1,-1,-1,-1,-1,-1,-1,-1,-1,-1,-1,-1,-1,-1,-1],"loss_changes":[6.2465796E2,6.495001E2,3.995349E1,7.8283875E1,1.4112334E2,2.823352E1,0E0,1.4342468E1,3.713211E1,5.9045105E0,8.025357E1,4.4102173E0,2.6986694E1,0E0,6.29068E0,2.6129272E1,2.3112564E1,1.3280087E0,3.156725E0,6.7842984E0,9.665039E0,1.888504E-1,3.7650146E0,3.9796143E0,1.9776672E1,2.912674E-1,8.344818E0,2.7254348E0,2.7965652E1,5.4450684E0,0E0,0E0,0E0,6.8984833E0,0E0,4.4086146E0,3.5309362E-1,5.897579E0,4.95343E0,8.3031845E-1,0E0,2.2636204E0,8.249817E-1,2.5072937E0,7.718239E-1,1.2160522E1,0E0,0E0,0E0,1.7066422E1,5.6819916E0,0E0,0E0,7.490494E0,2.9647903E1,3.0703201E0,0E0,1.8073139E0,2.649903E0,0E0,2.7498465E0,4.6895027E-1,0E0,6.8642807E0,4.055982E0,4.2438965E0,1.4242668E0,0E0,0E0,0E0,0E0,2.8896332E-1,3.4262085E-1,3.0900726E0,6.661987E-2,0E0,0E0,4.0306274E1,2.0499939E1,0E0,0E0,0E0,0E0,0E0,0E0,0E0,0E0,0E0,0E0,0E0,0E0,0E0,0E0,0E0,0E0,0E0,0E0,0E0,0E0,0E0,0E0,0E0,0E0,0E0,0E0,0E0,0E0,0E0,0E0,0E0,0E0,0E0,0E0,0E0,0E0,0E0,0E0],"parents":[2147483647,0,0,1,1,2,2,3,3,4,4,5,5,7,7,8,8,9,9,10,10,11,11,12,12,14,14,15,15,16,16,17,17,18,18,19,19,20,20,21,21,22,22,23,23,24,24,25,25,26,26,27,27,28,28,29,29,33,33,35,35,36,36,37,37,38,38,39,39,41,41,42,42,43,43,44,44,45,45,49,49,50,50,53,53,54,54,55,55,57,57,58,58,60,60,61,61,63,63,64,64,65,65,66,66,71,71,72,72,73,73,74,74,77,77,78,78],"right_children":[2,4,6,8,10,12,-1,14,16,18,20,22,24,-1,26,28,30,32,34,36,38,40,42,44,46,48,50,52,54,56,-1,-1,-1,58,-1,60,62,64,66,68,-1,70,72,74,76,78,-1,-1,-1,80,82,-1,-1,84,86,88,-1,90,92,-1,94,96,-1,98,100,102,104,-1,-1,-1,-1,106,108,110,112,-1,-1,114,116,-1,-1,-1,-1,-1,-1,-1,-1,-1,-1,-1,-1,-1,-1,-1,-1,-1,-1,-1,-1,-1,-1,-1,-1,-1,-1,-1,-1,-1,-1,-1,-1,-1,-1,-1,-1,-1,-1],"split_conditions":[5E-1,5E-1,2.5E0,2.0175E3,2.0175E3,1.5E0,-4.7800258E-2,1.5E0,5E-1,1.5E0,1.5E0,5E-1,2.0175E3,-4.2792095E-4,6.5E0,5E-1,2.5E0,1.65E1,2.55E1,2.15E1,2.5E0,1.55E1,5.5E0,3.5E0,9.5E0,2.5E0,1.75E1,1.75E1,1.5E0,5E-1,-9.096266E-5,-2.3892827E-2,-3.800104E-2,1.05E1,-2.6814511E-2,3.5E0,2.65E1,5E-1,5E-1,9.5E0,-4.5458265E-2,4.5E0,1.55E1,1.5E0,1.75E1,2.5E0,1.5495017E-2,-3.85502E-2,-4.4930853E-2,1.45E1,2.5E0,2.1797795E-2,4.5566214E-3,6.5E0,2.5E0,1.5E0,-4.56088E-2,4.5E0,3.5E0,-1.5307617E-2,5E-1,2.35E1,-1.3123698E-2,8.5E0,9.5E0,7.5E0,2.05E1,-4.5061078E-2,-3.2007918E-2,-2.959448E-2,-1.4399979E-2,9.5E0,1.95E1,5E-1,2.25E1,-2.2091474E-2,-3.090129E-2,5E-1,5E-1,-3.3672173E-2,-1.1447113E-2,-4.203688E-2,-2.9647635E-2,-1.629474E-2,-3.677386E-2,-5.4070614E-3,-1.879009E-2,-3.4678716E-2,-2.2408219E-2,-1.2404648E-2,-2.5481844E-2,2.7154807E-3,-1.374153E-2,7.7165104E-3,-1.4249923E-3,-1.22297E-2,-5.022076E-3,5.921521E-3,2.1806747E-2,2.0488473E-2,2.1048414E-3,2.1090906E-2,3.4687266E-2,4.0246952E-2,2.6018519E-2,-3.4122765E-2,-3.942611E-2,-2.9817792E-2,-3.4186337E-2,-4.3203127E-2,-3.1163232E-2,-4.3704882E-2,-3.6925767E-2,-1.8152814E-4,-2.4628077E-2,-3.720586E-2,-2.3808995E-2],"split_indices":[13,29,13,6,6,15,0,8,27,15,15,29,6,0,8,3,3,8,8,8,15,8,8,3,15,15,8,8,15,14,0,0,0,8,0,8,8,19,24,8,0,8,8,13,8,15,0,0,0,8,15,0,0,8,3,3,0,8,15,0,19,8,0,8,8,15,8,0,0,0,0,8,8,29,8,0,0,29,29,0,0,0,0,0,0,0,0,0,0,0,0,0,0,0,0,0,0,0,0,0,0,0,0,0,0,0,0,0,0,0,0,0,0,0,0,0,0],"split_type":[0,0,0,0,0,0,0,0,0,0,0,0,0,0,0,0,0,0,0,0,0,0,0,0,0,0,0,0,0,0,0,0,0,0,0,0,0,0,0,0,0,0,0,0,0,0,0,0,0,0,0,0,0,0,0,0,0,0,0,0,0,0,0,0,0,0,0,0,0,0,0,0,0,0,0,0,0,0,0,0,0,0,0,0,0,0,0,0,0,0,0,0,0,0,0,0,0,0,0,0,0,0,0,0,0,0,0,0,0,0,0,0,0,0,0,0,0],"sum_hessian":[3.3360505E3,1.824875E3,1.5111757E3,9.553616E2,8.695134E2,1.4430604E3,6.811519E1,2.761842E2,6.7917737E2,9.847148E1,7.7104193E2,2.5916754E2,1.183893E3,1.0109499E1,2.660747E2,5.708349E2,1.0834245E2,2.2303003E1,7.616847E1,1.5099751E2,6.2004443E2,4.346162E1,2.1570592E2,1.6657808E2,1.0173148E3,4.7813435E1,2.1826126E2,2.6480015E1,5.443549E2,9.176331E1,1.6579142E1,1.3004576E1,9.298429E0,6.408666E1,1.2081812E1,1.0638311E2,4.46144E1,1.5379388E2,4.6625055E2,1.9442905E1,2.4018717E1,3.2975975E1,1.8272995E2,1.325521E2,3.4025978E1,1.0081326E3,9.182238E0,2.417957E1,2.3633867E1,1.0689125E2,1.1137001E2,1.4102918E1,1.2377098E1,6.083485E1,4.8352005E2,6.795739E1,2.3805923E1,3.293513E1,3.1151531E1,9.15705E0,9.722606E1,2.7022457E1,1.759194E1,1.07027E2,4.6766888E1,4.423262E2,2.3924341E1,1.0186897E1,9.256007E0,2.189829E1,1.10776825E1,6.464293E1,1.1808702E2,8.683322E1,4.571887E1,1.7141468E1,1.688451E1,2.6673465E2,7.4139795E2,6.746596E1,3.9425297E1,5.7549248E1,5.3820763E1,1.8987867E1,4.1846985E1,2.746169E2,2.0890312E2,4.399722E1,2.3960169E1,1.3047319E1,1.9887812E1,2.075598E1,1.0395552E1,5.7320858E1,3.9905197E1,1.1389128E1,1.5633329E1,2.5831142E1,8.1195854E1,1.1200643E1,3.5566242E1,4.249328E2,1.7393412E1,1.3467171E1,1.04571705E1,2.487269E1,3.9770237E1,2.9290312E1,8.879671E1,2.2110794E1,6.472243E1,3.6700325E1,9.018545E0,6.3381123E1,2.0335353E2,9.430195E1,6.47096E2],"tree_param":{"num_deleted":"0","num_feature":"30","num_nodes":"117","size_leaf_vector":"0"}},{"base_weights":[-5.6816894E-1,-8.795578E-1,7.23751E-1,-1.2255006E0,-6.7532367E-1,8.2429814E-1,-5.4060525E-1,-1.0567809E0,-1.4361336E0,-4.566451E-1,-1.2069284E0,1.130492E0,5.348206E-1,2.0117704E-2,-1.8935637E0,-1.1731997E0,-6.1771584E-1,-1.3465366E0,-1.7150209E0,-4.130402E-1,-1.7295972E0,-1.4629799E0,-7.1166706E-1,1.3975565E0,9.5589453E-1,1.0062253E-1,8.756855E-1,-3.1971225E-1,5.380123E-1,-1.2741456E0,-7.193007E-1,-1.7317364E0,-4.5206204E-1,-1.4725307E0,-1.1892693E0,-5.0666076E-1,-1.151761E-1,-1.6430265E0,-1.2374696E0,-2.1994552E-2,-1.0994892E0,8.525213E-1,1.6612914E0,8.7177813E-1,1.4334412E0,2.5319806E-1,-1.1163914E0,9.525432E-1,2.3459463E-1,-2.2511595E-1,-3.9485356E-1,-1.4730246E0,-1.0919861E0,-1.7174587E0,-5.6636727E-1,-3.3828118E-1,-1.4490901E0,-1.5481092E0,-1.3787328E0,-8.193209E-1,-1.260502E0,-3.46352E-1,-7.2668475E-1,-2.0132783E-1,2.1933728E-1,-1.2694869E0,-1.7271649E0,-1.4928608E0,-7.662143E-1,-3.0084807E-1,1.4808809E0,-1.5873473E0,-8.873126E-1,1.0979223E0,2.3745331E-1,1.5535456E0,1.7160419E0,7.6094925E-1,1.1924019E0,1.7784115E0,1.2027067E0,4.480028E-1,-5.9780425E-1,8.908939E-1,1.7700235E0,-1.5398312E0,-1.3125325E0,-9.8727024E-1,-1.6384315E0,1.0769605E-1,-7.508265E-1,-5.9563756E-1,-4.1062538E-2,-1.5891877E0,-1.2771137E0,-1.2076082E0,-1.4972126E0,-1.5986538E-2,-1.3376065E0,-1.4249111E0,-1.1066647E0,-3.117032E-1,-1.1472557E0,-8.4919E-1,-3.5106358E-1,-2.3551822E-1,2.5991142E-1,5.84425E-1,-1.5171722E-1,-1.7236522E0,-5.640729E-1,-1.4331096E0,-1.7066972E0,3.6585256E-2,-1.4800049E0,-6.445672E-1,1.7958625E-3,-3.441384E-1,-1.176679E0,1.3156246E0,9.1529685E-1,1.7638084E0,1.1335069E0,1.3079786E0,6.362571E-1,1.3461857E0,1.0138249E0,-4.905203E-1,7.633017E-1,-1.00358345E-1,-9.460096E-1,8.07198E-1,1.3907796E0],"categories":[],"categories_nodes":[],"categories_segments":[],"categories_sizes":[],"default_left":[1,1,1,1,1,1,1,1,1,1,1,1,1,1,0,1,1,1,0,1,0,1,1,1,1,1,1,1,0,1,1,0,1,1,1,1,1,1,1,1,1,1,1,1,1,1,0,1,0,0,0,1,1,0,1,1,0,1,1,1,1,1,1,1,1,1,0,1,1,1,0,0,1,1,0,1,0,1,1,0,0,1,1,1,0,0,0,0,0,0,0,0,0,0,0,0,0,0,0,0,0,0,0,0,0,0,0,0,0,0,0,0,0,0,0,0,0,0,0,0,0,0,0,0,0,0,0,0,0,0,0,0,0],"id":9,"left_children":[1,3,5,7,9,11,13,15,17,19,21,23,25,27,-1,29,31,33,-1,35,-1,37,39,41,43,45,47,49,-1,51,53,-1,55,57,59,61,63,65,67,69,71,73,75,77,79,81,-1,83,-1,-1,-1,85,87,-1,89,91,-1,93,95,97,99,101,103,105,107,109,-1,111,113,115,-1,-1,117,119,-1,121,-1,123,125,-1,-1,127,129,131,-1,-1,-1,-1,-1,-1,-1,-1,-1,-1,-1,-1,-1,-1,-1,-1,-1,-1,-1,-1,-1,-1,-1,-1,-1,-1,-1,-1,-1,-1,-1,-1,-1,-1,-1,-1,-1,-1,-1,-1,-1,-1,-1,-1,-1,-1,-1,-1,-1],"loss_changes":[1.324499E3,1.8729785E2,8.136691E1,3.474524E1,1.938659E2,5.2413666E1,3.58176E1,2.7858032E1,1.0558594E1,6.551622E1,6.1486084E1,1.3202606E1,4.510228E1,5.929406E0,0E0,1.9664978E1,2.1103794E1,6.29303E0,0E0,3.1877014E1,0E0,1.2678772E1,4.4398064E1,1.6073624E1,6.8087463E0,2.4973122E1,8.377365E0,1.3031697E-1,0E0,1.2548401E1,1.190892E1,0E0,1.1306955E1,9.573364E-1,3.7452545E0,3.0644287E1,7.893566E0,5.229553E0,1.7010178E1,2.5181183E1,1.0771545E1,5.5898952E0,2.0339966E-2,5.1409073E0,1.715786E0,1.9840763E1,0E0,7.427429E0,0E0,0E0,0E0,1.4814758E0,1.0333557E1,0E0,8.564865E0,6.902958E0,0E0,7.900238E-1,1.3992004E0,1.0166727E1,2.8864899E0,1.3916904E1,1.6818298E1,3.4429035E0,7.616912E0,1.0500069E1,0E0,7.875824E-1,2.8971558E1,5.271314E0,0E0,0E0,1.1630806E1,8.646202E-1,0E0,2.097351E0,0E0,7.438179E0,8.219147E-1,0E0,0E0,2.8843624E1,3.849771E0,5.7624664E0,0E0,0E0,0E0,0E0,0E0,0E0,0E0,0E0,0E0,0E0,0E0,0E0,0E0,0E0,0E0,0E0,0E0,0E0,0E0,0E0,0E0,0E0,0E0,0E0,0E0,0E0,0E0,0E0,0E0,0E0,0E0,0E0,0E0,0E0,0E0,0E0,0E0,0E0,0E0,0E0,0E0,0E0,0E0,0E0,0E0,0E0,0E0,0E0,0E0],"parents":[2147483647,0,0,1,1,2,2,3,3,4,4,5,5,6,6,7,7,8,8,9,9,10,10,11,11,12,12,13,13,15,15,16,16,17,17,19,19,21,21,22,22,23,23,24,24,25,25,26,26,27,27,29,29,30,30,32,32,33,33,34,34,35,35,36,36,37,37,38,38,39,39,40,40,41,41,42,42,43,43,44,44,45,45,47,47,51,51,52,52,54,54,55,55,57,57,58,58,59,59,60,60,61,61,62,62,63,63,64,64,65,65,67,67,68,68,69,69,72,72,73,73,75,75,77,77,78,78,81,81,82,82,83,83],"right_children":[2,4,6,8,10,12,14,16,18,20,22,24,26,28,-1,30,32,34,-1,36,-1,38,40,42,44,46,48,50,-1,52,54,-1,56,58,60,62,64,66,68,70,72,74,76,78,80,82,-1,84,-1,-1,-1,86,88,-1,90,92,-1,94,96,98,100,102,104,106,108,110,-1,112,114,116,-1,-1,118,120,-1,122,-1,124,126,-1,-1,128,130,132,-1,-1,-1,-1,-1,-1,-1,-1,-1,-1,-1,-1,-1,-1,-1,-1,-1,-1,-1,-1,-1,-1,-1,-1,-1,-1,-1,-1,-1,-1,-1,-1,-1,-1,-1,-1,-1,-1,-1,-1,-1,-1,-1,-1,-1,-1,-1,-1,-1],"split_conditions":[1.525E2,2.45E1,1.15E1,8.5E0,5E-1,5E-1,5E-1,1.45E1,1.15E1,5E-1,9.15E1,5E-1,2.285E2,2.6E2,-5.0688565E-2,1.5E0,1.5E0,9.5E0,-4.5909178E-2,1.015E2,-4.629937E-2,5E-1,1.055E2,1.805E2,5E-1,2.135E2,1.5E0,2.125E2,1.44019835E-2,3.5E0,1.5E0,-4.6356633E-2,5E-1,3.5E0,1.15E1,8.5E0,9.5E0,3.45E1,6.85E1,1.045E2,5E-1,1.725E2,2.075E2,2.305E2,1.5E0,1.5E0,-2.988454E-2,1.05E1,6.2798336E-3,-6.0261004E-3,-1.0569785E-2,5E-1,5E-1,-4.5974433E-2,1.5E0,5E-1,-3.879051E-2,5E-1,5.5E0,5E-1,5E-1,5E-1,7.15E1,1.485E2,1.05E1,3.15E1,-4.6234258E-2,1.05E1,7.85E1,1.005E2,3.964151E-2,-4.2491496E-2,1.175E2,1.605E2,6.3563576E-3,1.955E2,4.5936506E-2,1.625E2,1.5E0,4.760607E-2,3.2195102E-2,1.65E2,1.685E2,3.42E2,4.738153E-2,-4.1219544E-2,-3.5135016E-2,-2.642811E-2,-4.3858964E-2,2.8829018E-3,-2.0098777E-2,-1.5944546E-2,-1.0991978E-3,-4.2540763E-2,-3.4186892E-2,-3.232631E-2,-4.0078696E-2,-4.279416E-4,-3.580622E-2,-3.8143266E-2,-2.9624166E-2,-8.343943E-3,-3.071074E-2,-2.273186E-2,-9.397577E-3,-6.304557E-3,6.9575356E-3,1.5644398E-2,-4.061299E-3,-4.6140227E-2,-1.5099595E-2,-3.836273E-2,-4.568636E-2,9.793461E-4,-3.9618064E-2,-1.7254338E-2,4.8073212E-5,-9.212198E-3,-3.149837E-2,3.5217788E-2,2.4501465E-2,4.721516E-2,3.0342702E-2,3.5013113E-2,1.7031886E-2,3.6035873E-2,2.713895E-2,-1.3130675E-2,2.0432726E-2,-2.6864798E-3,-2.5323609E-2,2.160778E-2,3.72296E-2],"split_indices":[5,5,7,7,28,28,28,5,7,4,5,2,5,5,0,2,7,5,0,5,0,2,5,5,22,5,2,5,0,5,7,0,28,5,5,7,7,5,5,5,2,5,5,5,2,2,0,7,0,0,0,2,28,0,5,2,0,22,5,2,2,27,5,5,7,5,0,7,5,5,0,0,5,5,0,5,0,5,2,0,0,5,5,5,0,0,0,0,0,0,0,0,0,0,0,0,0,0,0,0,0,0,0,0,0,0,0,0,0,0,0,0,0,0,0,0,0,0,0,0,0,0,0,0,0,0,0,0,0,0,0,0,0],"split_type":[0,0,0,0,0,0,0,0,0,0,0,0,0,0,0,0,0,0,0,0,0,0,0,0,0,0,0,0,0,0,0,0,0,0,0,0,0,0,0,0,0,0,0,0,0,0,0,0,0,0,0,0,0,0,0,0,0,0,0,0,0,0,0,0,0,0,0,0,0,0,0,0,0,0,0,0,0,0,0,0,0,0,0,0,0,0,0,0,0,0,0,0,0,0,0,0,0,0,0,0,0,0,0,0,0,0,0,0,0,0,0,0,0,0,0,0,0,0,0,0,0,0,0,0,0,0,0,0,0,0,0,0,0],"sum_hessian":[3.2919868E3,2.6526704E3,6.3931635E2,9.844128E2,1.6682577E3,5.922723E2,4.7044018E1,5.4712695E2,4.3728586E2,1.1822373E3,4.8602042E2,2.8759824E2,3.0467407E2,3.3371983E1,1.3672038E1,4.3224673E2,1.14880196E2,3.3167044E2,1.0561542E2,1.1432874E3,3.8949863E1,3.201745E2,1.6584593E2,1.13246956E2,1.7435127E2,1.3408435E2,1.705897E2,2.0187248E1,1.3184732E1,3.5336755E2,7.887918E1,1.4674065E1,1.0020613E2,1.8339601E2,1.4827441E2,8.69793E2,2.7349435E2,1.7747026E2,1.4270424E2,5.9754128E1,1.06091805E2,3.7151485E1,7.6095474E1,1.4862694E2,2.5724337E1,1.1926042E2,1.4823938E1,1.5225787E2,1.8331831E1,9.221713E0,1.0965535E1,1.6838535E2,1.8498222E2,1.0260868E1,6.861831E1,9.013563E1,1.0070502E1,1.001785E2,8.3217514E1,2.4265478E1,1.24008934E2,5.0341873E2,3.6637433E2,2.1753403E2,5.5960323E1,3.3102184E1,1.4436807E2,9.2322105E1,5.038213E1,5.0510868E1,9.243262E0,3.183934E1,7.4252464E1,2.646568E1,1.0685804E1,2.723375E1,4.886172E1,1.10852455E2,3.777449E1,9.876836E0,1.5847501E1,9.7107605E1,2.215281E1,1.4189381E2,1.0364064E1,1.1791662E2,5.046872E1,1.5561397E2,2.9368258E1,1.4757499E1,5.386081E1,4.8220543E1,4.1915085E1,8.6311386E1,1.3867117E1,3.478279E1,4.8434727E1,9.581064E0,1.4684413E1,5.930128E1,6.470766E1,4.8275742E2,2.0661304E1,2.7611795E2,9.025636E1,2.0259506E2,1.4938963E1,2.8160257E1,2.7800066E1,1.999578E1,1.3106404E1,7.3128944E1,1.9193163E1,2.3784538E1,2.659759E1,2.3565268E1,2.6945599E1,2.5930548E1,4.832192E1,1.1617395E1,1.4848284E1,1.7805342E1,9.42841E0,2.0293808E1,9.055865E1,1.9730183E1,1.8044306E1,2.4397156E1,7.271045E1,9.207099E0,1.2945711E1,1.21904594E2,1.9989216E1],"tree_param":{"num_deleted":"0","num_feature":"30","num_nodes":"133","size_leaf_vector":"0"}},{"base_weights":[-5.224335E-1,-1.1093113E0,-3.984672E-1,6.128011E-1,-1.2220141E0,-1.6088535E0,-3.5632092E-1,1.226589E0,3.6087516E-1,-1.1082536E0,-1.5662663E0,-1.636645E0,-1.3620614E0,-3.0778447E-1,-1.2858132E0,5.671447E-1,7.496497E-2,-9.155608E-1,-1.2428046E0,-1.5200294E0,-1.6586593E0,-2.561752E-1,-9.9552685E-1,-1.4689677E0,-6.4718556E-1,-8.6044127E-1,-1.6571743E0,-9.1512066E-1,-1.3104403E0,-1.4592276E0,-1.630365E0,-4.855344E-1,-1.366087E-1,-1.3370383E0,-8.272881E-1,-1.378089E0,-1.6007556E0,-1.0636742E0,2.4543586E-1,-1.0275332E0,-6.260445E-1,-1.0771993E0,-5.85006E-1,-1.3987181E0,-1.2158682E0,-4.5499158E-1,-1.6567355E0,-5.5065316E-1,-5.4684296E-2,-1.519778E0,-1.1563337E0,-9.429362E-1,-4.0276277E-1,-1.4984977E0,-1.2497449E0,-1.2990239E0,-8.429296E-1,-1.4255017E0,-4.8561257E-1,-3.9067286E-1,-1.2096182E0,-9.1254926E-1,-1.3051608E0,-1.1717507E0,-1.4725059E0,-1.3132483E0,-6.106469E-1,-4.738808E-1,8.6517435E-1,-2.9943785E-1,-7.127617E-1,-3.0529223E-2,-9.440229E-1,-1.2512598E0,-9.338282E-1,-1.1090753E0,-6.3944256E-1,-6.500382E-1,-1.1480612E-2,-1.3701096E0,-1.6138041E0,-1.4975412E0,-7.073611E-1],"categories":[],"categories_nodes":[],"categories_segments":[],"categories_sizes":[],"default_left":[1,1,1,1,1,1,1,0,1,1,1,0,0,1,1,0,0,1,1,1,0,1,1,1,1,1,0,1,1,0,0,1,1,1,1,1,0,1,0,1,1,1,0,1,1,1,0,1,1,0,1,1,1,1,1,0,0,0,0,0,0,0,0,0,0,0,0,0,0,0,0,0,0,0,0,0,0,0,0,0,0,0,0],"id":10,"left_children":[1,3,5,7,9,11,13,-1,15,17,19,-1,-1,21,23,-1,-1,25,27,29,-1,31,33,35,37,39,-1,41,43,-1,-1,45,47,49,51,53,-1,55,-1,57,59,61,-1,63,65,67,-1,69,71,-1,73,75,77,79,81,-1,-1,-1,-1,-1,-1,-1,-1,-1,-1,-1,-1,-1,-1,-1,-1,-1,-1,-1,-1,-1,-1,-1,-1,-1,-1,-1,-1],"loss_changes":[2.4100555E2,1.122608E2,1.3948044E2,5.433077E0,2.095996E1,2.7198792E-1,1.1922507E2,0E0,1.4950378E0,1.0399841E1,1.6760254E-1,0E0,0E0,8.916011E1,1.5189453E1,0E0,0E0,6.655884E0,5.1238403E0,2.3016357E-1,0E0,6.410402E1,9.897751E0,8.639221E-1,1.1017533E1,6.0503693E0,0E0,2.123188E0,1.3831177E0,0E0,0E0,2.8534515E1,5.2131294E1,1.6195221E0,5.7278214E0,6.473694E-1,0E0,8.709526E-1,0E0,1.9618317E1,8.962725E0,8.4765625E-1,0E0,1.4233551E0,5.5911713E0,1.9540298E1,0E0,1.0304146E1,2.7563478E1,0E0,4.3787384E-1,4.552246E0,2.468534E0,1.00875854E-1,3.955223E0,0E0,0E0,0E0,0E0,0E0,0E0,0E0,0E0,0E0,0E0,0E0,0E0,0E0,0E0,0E0,0E0,0E0,0E0,0E0,0E0,0E0,0E0,0E0,0E0,0E0,0E0,0E0,0E0],"parents":[2147483647,0,0,1,1,2,2,3,3,4,4,5,5,6,6,8,8,9,9,10,10,13,13,14,14,17,17,18,18,19,19,21,21,22,22,23,23,24,24,25,25,27,27,28,28,31,31,32,32,33,33,34,34,35,35,37,37,39,39,40,40,41,41,43,43,44,44,45,45,47,47,48,48,50,50,51,51,52,52,53,53,54,54],"right_children":[2,4,6,8,10,12,14,-1,16,18,20,-1,-1,22,24,-1,-1,26,28,30,-1,32,34,36,38,40,-1,42,44,-1,-1,46,48,50,52,54,-1,56,-1,58,60,62,-1,64,66,68,-1,70,72,-1,74,76,78,80,82,-1,-1,-1,-1,-1,-1,-1,-1,-1,-1,-1,-1,-1,-1,-1,-1,-1,-1,-1,-1,-1,-1,-1,-1,-1,-1,-1,-1],"split_conditions":[2.0175E3,7.5E0,1.5E0,6.5E0,1.05E1,5E-1,5E-1,3.2834403E-2,1.75E1,1.5E0,4.5E0,-4.381114E-2,-3.6460847E-2,1.15E1,2.5E0,1.5181824E-2,2.0067277E-3,5E-1,8.5E0,1.5E0,-4.440044E-2,5.5E0,2.5E0,5E-1,2.05E1,9.5E0,-4.436069E-2,3.5E0,2.5E0,-3.9061878E-2,-4.3643035E-2,5E-1,1.5E0,1.5E0,5E-1,1.85E1,-4.2850424E-2,7.5E0,6.570041E-3,2.5E0,5E-1,1.75E1,-1.565995E-2,8.5E0,2.25E1,7.5E0,-4.4348944E-2,2.5E0,5E-1,-4.0682744E-2,1.65E1,2.45E1,2.15E1,1.5E0,3.5E0,-3.4773406E-2,-2.2564275E-2,-3.8159072E-2,-1.2999301E-2,-1.0457872E-2,-3.2380115E-2,-2.4427915E-2,-3.4937683E-2,-3.1366445E-2,-3.9417323E-2,-3.5154175E-2,-1.634633E-2,-1.2685254E-2,2.3159742E-2,-8.015614E-3,-1.9079827E-2,-8.172329E-4,-2.5270429E-2,-3.3494815E-2,-2.4997527E-2,-2.9688695E-2,-1.7117156E-2,-1.740079E-2,-3.0732303E-4,-3.6676288E-2,-4.3199718E-2,-4.0087488E-2,-1.893526E-2],"split_indices":[6,7,7,8,7,27,27,0,8,16,16,0,0,7,15,0,0,22,7,2,0,7,15,11,8,7,0,15,15,0,0,4,15,15,19,8,0,7,0,15,16,8,0,8,8,15,0,16,4,0,8,8,8,15,16,0,0,0,0,0,0,0,0,0,0,0,0,0,0,0,0,0,0,0,0,0,0,0,0,0,0,0,0],"split_type":[0,0,0,0,0,0,0,0,0,0,0,0,0,0,0,0,0,0,0,0,0,0,0,0,0,0,0,0,0,0,0,0,0,0,0,0,0,0,0,0,0,0,0,0,0,0,0,0,0,0,0,0,0,0,0,0,0,0,0,0,0,0,0,0,0,0,0,0,0,0,0,0,0,0,0,0,0,0,0,0,0,0,0],"sum_hessian":[3.3134688E3,5.776227E2,2.735846E3,3.5436287E1,5.421864E2,9.185663E1,2.6439893E3,1.01307E1,2.5305586E1,4.0802997E2,1.3415643E2,8.1743996E1,1.01126375E1,2.5129805E3,1.310089E2,1.4608108E1,1.0697477E1,1.6828448E2,2.3974547E2,9.128551E1,4.2870934E1,2.3377715E3,1.7520901E2,1.0164754E2,2.936136E1,1.569662E2,1.1318287E1,4.14188E1,1.9832668E2,6.0331146E1,3.0954357E1,8.009159E2,1.5368556E3,5.745685E1,1.17752174E2,6.125379E1,4.039375E1,1.9999098E1,9.362263E0,9.132159E1,6.5644615E1,2.753509E1,1.388371E1,1.0142777E2,9.68989E1,7.8077826E2,2.0137604E1,2.5370636E2,1.2831492E3,2.7973969E1,2.948288E1,9.2387474E1,2.53647E1,3.0716482E1,3.0537308E1,9.2984495E0,1.0700647E1,5.250268E1,3.881891E1,4.696947E1,1.8675142E1,1.6455671E1,1.1079418E1,2.5551693E1,7.587608E1,8.330643E1,1.3592478E1,7.698661E2,1.0912146E1,9.968533E1,1.5402101E2,1.2493817E3,3.376746E1,2.0144043E1,9.338837E0,5.942775E1,3.2959724E1,1.5477173E1,9.887527E0,1.5515844E1,1.5200639E1,2.0766222E1,9.771086E0],"tree_param":{"num_deleted":"0","num_feature":"30","num_nodes":"83","size_leaf_vector":"0"}},{"base_weights":[-5.339914E-1,-1.0706671E0,-4.1522908E-1,5.602963E-1,-1.1735126E0,-1.5582086E0,-3.7190318E-1,2.0115271E-2,1.1750741E0,-1.0580537E0,-1.5307168E0,-1.5887053E0,-1.2657781E0,-3.2440767E-1,-9.9655163E-1,-1.3625017E0,-9.5595956E-1,-1.6220351E0,-1.4064752E0,-2.9152665E-1,-1.2696025E0,-1.7149259E0,-7.6693046E-1,-9.1820645E-1,-1.4190266E0,-7.626625E-1,-1.0863165E0,-1.5014967E0,-1.1817281E0,-2.7338716E-1,-1.4596297E0,-1.3768167E0,-7.668659E-1,-1.2899882E0,-6.1634696E-1,-1.2903464E0,-1.5933378E0,-4.7235504E-1,-9.5130545E-1,-1.1711102E0,-9.9854606E-1,-1.3007336E0,-1.6003441E0,-4.2545232E-1,-1.3414827E-1,-1.2985938E0,-1.532213E0,-1.6511062E0,-1.2768801E0,-1.4247196E0,-1.1633744E0,-1.3039912E0,-5.49634E-1,-1.055779E0,-1.449987E0,-8.83917E-2,-6.4229393E-1,-1.2961324E0,-4.6175575E-1,-1.1068724E0,-1.3124632E0,-1.2148296E0,-8.9797103E-1,-4.397742E-1,9.774146E-1,-3.4175292E-1,-4.1268118E-2,-1.614326E0,-1.1794058E0,-1.6497509E-1,-6.4209807E-1],"categories":[],"categories_nodes":[],"categories_segments":[],"categories_sizes":[],"default_left":[1,1,1,1,1,1,1,0,0,1,1,0,0,1,1,1,1,0,1,1,1,0,1,0,1,1,1,1,0,1,1,1,0,1,1,1,0,1,1,1,1,0,0,1,1,0,0,0,1,0,0,0,1,0,0,0,0,0,0,0,0,0,0,0,0,0,0,0,0,0,0],"id":11,"left_children":[1,3,5,7,9,11,13,-1,-1,15,17,-1,-1,19,21,23,25,-1,27,29,31,-1,33,-1,35,37,39,41,-1,43,45,47,-1,49,51,53,-1,55,57,59,61,-1,-1,63,65,-1,-1,-1,67,-1,-1,-1,69,-1,-1,-1,-1,-1,-1,-1,-1,-1,-1,-1,-1,-1,-1,-1,-1,-1,-1],"loss_changes":[2.0866992E2,9.9628174E1,1.3271552E2,1.1720182E1,2.2759705E1,5.491028E-1,7.6614655E1,0E0,0E0,1.2917877E1,1.1753235E0,0E0,0E0,7.458557E1,2.9896423E1,2.4442444E0,7.849823E0,0E0,9.7029877E-1,4.9120316E1,4.1794434E0,0E0,1.0789055E1,0E0,1.765152E0,6.945587E0,1.2170258E0,4.732437E-1,0E0,4.839232E1,9.388733E-2,1.477951E0,0E0,2.5899124E-1,4.83585E0,1.7985382E0,0E0,3.3051481E0,1.2989075E1,6.296234E-1,1.8665085E0,0E0,0E0,2.2020966E1,2.301201E1,0E0,0E0,0E0,1.3152313E0,0E0,0E0,0E0,3.4921513E0,0E0,0E0,0E0,0E0,0E0,0E0,0E0,0E0,0E0,0E0,0E0,0E0,0E0,0E0,0E0,0E0,0E0,0E0],"parents":[2147483647,0,0,1,1,2,2,3,3,4,4,5,5,6,6,9,9,10,10,13,13,14,14,15,15,16,16,18,18,19,19,20,20,22,22,24,24,25,25,26,26,27,27,29,29,30,30,31,31,33,33,34,34,35,35,37,37,38,38,39,39,40,40,43,43,44,44,48,48,52,52],"right_children":[2,4,6,8,10,12,14,-1,-1,16,18,-1,-1,20,22,24,26,-1,28,30,32,-1,34,-1,36,38,40,42,-1,44,46,48,-1,50,52,54,-1,56,58,60,62,-1,-1,64,66,-1,-1,-1,68,-1,-1,-1,70,-1,-1,-1,-1,-1,-1,-1,-1,-1,-1,-1,-1,-1,-1,-1,-1,-1,-1],"split_conditions":[2.0175E3,7.5E0,1.5E0,5E-1,1.05E1,5.5E0,1.15E1,5.384631E-4,3.145541E-2,1.5E0,5E-1,-4.252785E-2,-3.3883452E-2,5E-1,5E-1,8.5E0,1.5E0,-4.342005E-2,2.5E0,5E-1,1.5E0,-4.5906633E-2,1.5E0,-2.4579352E-2,3.5E0,1.5E0,5E-1,1.15E1,-3.163353E-2,6.5E0,4.5E0,4.5E0,-2.0528136E-2,5E-1,5E-1,5E-1,-4.2651854E-2,5E-1,9.5E0,9.5E0,2.5E0,-3.481917E-2,-4.2839408E-2,5.5E0,1.5E0,-3.476189E-2,-4.1015614E-2,-4.4198252E-2,5E-1,-3.8138136E-2,-3.1142222E-2,-3.4906372E-2,2.5E0,-2.8262014E-2,-3.881452E-2,-2.366146E-3,-1.7193485E-2,-3.4696005E-2,-1.2360681E-2,-2.9629728E-2,-3.513316E-2,-3.2519616E-2,-2.4037672E-2,-1.1772259E-2,2.6164288E-2,-9.148341E-3,-1.104701E-3,-4.3213688E-2,-3.1571362E-2,-4.416197E-3,-1.7188242E-2],"split_indices":[6,7,7,29,7,16,7,0,0,0,29,0,0,4,29,7,16,0,3,9,2,0,3,0,16,3,2,7,0,7,7,7,0,2,16,2,0,16,7,7,16,0,0,3,3,0,0,0,29,0,0,0,16,0,0,0,0,0,0,0,0,0,0,0,0,0,0,0,0,0,0],"split_type":[0,0,0,0,0,0,0,0,0,0,0,0,0,0,0,0,0,0,0,0,0,0,0,0,0,0,0,0,0,0,0,0,0,0,0,0,0,0,0,0,0,0,0,0,0,0,0,0,0,0,0,0,0,0,0,0,0,0,0,0,0,0,0,0,0,0,0,0,0,0,0],"sum_hessian":[3.2748918E3,5.931611E2,2.6817307E3,3.514241E1,5.580187E2,9.773562E1,2.583995E3,1.8794662E1,1.6347746E1,4.2219214E2,1.3582654E2,8.785891E1,9.876713E0,2.4016304E3,1.8236461E2,1.0552482E2,3.1666733E2,7.716648E1,5.8660065E1,2.321096E3,8.0534454E1,4.3919495E1,1.3844511E2,1.2223581E1,9.330124E1,1.27987465E2,1.8867986E2,4.058553E1,1.8074533E1,2.2857986E3,3.5297356E1,6.614763E1,1.4386831E1,3.0675053E1,1.07770065E2,5.4455093E1,3.884614E1,5.0632442E1,7.735503E1,9.495583E1,9.372402E1,1.4142575E1,2.6442955E1,1.0924186E3,1.19338E3,1.1912161E1,2.3385195E1,1.6996828E1,4.91508E1,1.406087E1,1.6614183E1,9.266589E0,9.850348E1,2.2549171E1,3.1905922E1,1.5609326E1,3.5023117E1,4.523038E1,3.2124645E1,6.626466E1,2.8691174E1,2.9182667E1,6.454135E1,1.0814883E3,1.0930288E1,3.6874152E2,8.2463855E2,1.0453767E1,3.869703E1,1.9176414E1,7.9327065E1],"tree_param":{"num_deleted":"0","num_feature":"30","num_nodes":"71","size_leaf_vector":"0"}},{"base_weights":[-4.9943027E-1,-1.2047673E-1,-9.5524836E-1,-6.7615473E-1,4.9274775E-1,-1.0458406E0,3.2811907E-1,-1.2147361E0,-5.602698E-1,5.2678716E-1,-1.3160654E0,-1.4852479E0,-9.828254E-1,7.911632E-1,-5.942225E-1,-1.3326757E0,-5.388835E-1,-5.0695574E-1,-1.4818311E0,2.0270142E-1,6.912394E-1,-1.3743026E0,-1.5666094E0,-8.36566E-1,-1.2657987E0,1.2380527E-1,1.1708462E0,-1.0002484E0,-3.022572E-1,-1.2521416E0,-1.5976999E0,-1.019429E0,-1.5999189E-1,-7.1241534E-1,-2.681456E-1,-1.6246796E0,-1.387634E0,-1.7361368E-1,4.8743626E-1,6.4515287E-1,1.0828508E0,-1.5123967E0,-1.1166192E0,-8.5197365E-1,4.262152E-1,-1.3570616E0,-8.358515E-1,-4.6710688E-1,5.0414824E-1,7.345899E-1,1.5169259E0,1.9928113E-1,-7.990142E-1,-1.3427643E0,-1.071281E0,-5.8043754E-1,-1.3636276E0,-5.3729796E-1,-1.1081426E-1,-1.2349994E0,-1.5482906E0,-3.9447073E-2,-7.54872E-1,1.2163991E-1,6.893952E-1,6.5810317E-1,3.835468E-2,1.3964118E0,9.992747E-1,-1.3972797E0,-1.6233888E0,-8.0069387E-1,-1.2752635E0,-8.914752E-1,-4.4077694E-1,-1.4048826E0,-8.332702E-1,-6.602444E-1,-1.747542E0,-1.4918581E0,-1.285163E0,-9.4145703E-1,-1.3949986E0,5.236888E-1,-6.401314E-1,-1.0742631E0,-1.4500738E0,-9.4385356E-2,-1.0945412E0,-2.2538769E-1,5.454362E-1,-1.2964873E-1,6.1122525E-1,-9.421558E-2,5.653343E-1,8.308793E-1,2.692981E-1,6.038112E-1,8.078442E-1,1.2251121E0,7.563523E-1,-1.5529511E0,-1.1378284E0,-9.417106E-1,-6.246552E-1,-7.4661154E-1,-3.1062788E-1,-1.352666E0,-1.7218617E0,-5.4268795E-1,-1.0982053E0,-9.103635E-1,-2.8299007E-1],"categories":[],"categories_nodes":[],"categories_segments":[],"categories_sizes":[],"default_left":[1,1,1,1,1,1,1,1,1,1,0,1,1,1,1,1,1,1,1,1,1,1,0,1,1,1,1,0,1,1,0,0,0,1,1,0,1,1,1,1,1,1,1,1,0,1,1,0,0,0,0,0,0,1,1,1,1,1,1,0,0,1,0,1,1,1,0,0,1,1,0,0,0,1,1,1,1,1,0,0,0,0,0,0,0,0,0,0,0,0,0,0,0,0,0,0,0,0,0,0,0,0,0,0,0,0,0,0,0,0,0,0,0],"id":12,"left_children":[1,3,5,7,9,11,13,15,17,19,-1,21,23,25,27,29,31,33,35,37,39,41,-1,43,45,47,49,-1,51,53,-1,-1,-1,55,57,-1,59,61,63,65,67,69,71,73,-1,75,77,-1,-1,-1,-1,-1,-1,79,81,83,85,87,89,-1,-1,91,-1,93,95,97,-1,-1,99,101,-1,-1,-1,103,105,107,109,111,-1,-1,-1,-1,-1,-1,-1,-1,-1,-1,-1,-1,-1,-1,-1,-1,-1,-1,-1,-1,-1,-1,-1,-1,-1,-1,-1,-1,-1,-1,-1,-1,-1,-1,-1],"loss_changes":[5.653674E2,6.0913995E2,1.7280627E2,5.842151E1,5.243611E1,3.8195923E1,4.1969887E1,1.31094055E1,3.781099E1,4.4439682E1,0E0,1.2216187E0,5.0087524E1,1.6541954E1,3.8488522E0,2.690445E0,4.5113583E0,3.5790527E1,2.0378113E-1,3.012828E1,9.874359E0,2.3906555E0,0E0,1.5643738E1,1.6040833E1,5.4065685E0,6.1087837E0,0E0,4.8481426E0,1.5548248E0,0E0,0E0,0E0,3.359221E1,1.4298676E1,0E0,3.4169388E-1,9.445195E0,1.1809288E1,3.8895874E0,1.295845E0,2.512207E-1,1.1749268E0,1.2791687E1,0E0,8.3480835E0,1.1471947E1,0E0,0E0,0E0,0E0,0E0,0E0,3.092804E-1,1.3510551E0,2.1573776E1,1.3998413E0,3.0737495E1,1.6068375E1,0E0,0E0,5.8010406E0,0E0,5.479454E0,6.0903854E0,3.8653412E0,0E0,0E0,2.3952522E0,7.1894836E-1,0E0,0E0,0E0,9.581421E0,2.73631E0,4.789795E0,2.129469E0,5.744072E0,0E0,0E0,0E0,0E0,0E0,0E0,0E0,0E0,0E0,0E0,0E0,0E0,0E0,0E0,0E0,0E0,0E0,0E0,0E0,0E0,0E0,0E0,0E0,0E0,0E0,0E0,0E0,0E0,0E0,0E0,0E0,0E0,0E0,0E0,0E0],"parents":[2147483647,0,0,1,1,2,2,3,3,4,4,5,5,6,6,7,7,8,8,9,9,11,11,12,12,13,13,14,14,15,15,16,16,17,17,18,18,19,19,20,20,21,21,23,23,24,24,25,25,26,26,28,28,29,29,33,33,34,34,36,36,37,37,38,38,39,39,40,40,41,41,42,42,43,43,45,45,46,46,53,53,54,54,55,55,56,56,57,57,58,58,61,61,63,63,64,64,65,65,68,68,69,69,73,73,74,74,75,75,76,76,77,77],"right_children":[2,4,6,8,10,12,14,16,18,20,-1,22,24,26,28,30,32,34,36,38,40,42,-1,44,46,48,50,-1,52,54,-1,-1,-1,56,58,-1,60,62,64,66,68,70,72,74,-1,76,78,-1,-1,-1,-1,-1,-1,80,82,84,86,88,90,-1,-1,92,-1,94,96,98,-1,-1,100,102,-1,-1,-1,104,106,108,110,112,-1,-1,-1,-1,-1,-1,-1,-1,-1,-1,-1,-1,-1,-1,-1,-1,-1,-1,-1,-1,-1,-1,-1,-1,-1,-1,-1,-1,-1,-1,-1,-1,-1,-1,-1],"split_conditions":[5E-1,5E-1,5E-1,5E-1,5E-1,5E-1,2.5E0,2.5E0,5E-1,1.5E0,-3.5229586E-2,5E-1,1.5E0,5E-1,1.65E1,5E-1,1.3E1,5E-1,5E-1,5E-1,5E-1,2.5E0,-4.1936368E-2,6.5E0,3.5E0,1.45E1,1.5E0,-2.6775522E-2,2.35E1,1.5E0,-4.2768624E-2,-2.7288964E-2,-4.2828023E-3,2.35E1,1.15E1,-4.3490842E-2,1.65E1,2.35E1,5E-1,5E-1,7.5E0,1.55E1,9.5E0,5E-1,1.14093E-2,2.85E1,2.5E0,-1.2503925E-2,1.349548E-2,1.9664142E-2,4.0606398E-2,5.334531E-3,-2.138871E-2,1.05E1,1.95E1,1.5E0,1.5E0,1.5E0,5E-1,-3.305954E-2,-4.1445993E-2,5E-1,-2.0207074E-2,1.5E0,5E-1,3.5E0,1.0267115E-3,3.7380368E-2,1.5E0,9.5E0,-4.3456286E-2,-2.1433672E-2,-3.413737E-2,3.5E0,1.5E0,2.5E0,2.95E1,1.5E0,-4.677973E-2,-3.993536E-2,-3.4402367E-2,-2.5201743E-2,-3.7342537E-2,1.4018559E-2,-1.7135596E-2,-2.8756812E-2,-3.8816843E-2,-2.5265897E-3,-2.9299634E-2,-6.0333745E-3,1.4600712E-2,-3.4705503E-3,1.636181E-2,-2.5220448E-3,1.5133362E-2,2.22417E-2,7.2088065E-3,1.6163345E-2,2.162508E-2,3.279487E-2,2.0246698E-2,-4.157075E-2,-3.0458381E-2,-2.5208531E-2,-1.6721316E-2,-1.998595E-2,-8.315158E-3,-3.6209345E-2,-4.6092298E-2,-1.4527145E-2,-2.9397719E-2,-2.4369404E-2,-7.575325E-3],"split_indices":[13,29,17,28,4,29,3,3,22,3,0,2,13,28,8,11,8,2,2,2,1,3,0,3,3,8,3,0,8,3,0,0,0,8,8,0,8,8,3,20,8,8,8,1,0,8,13,0,0,0,0,0,0,8,8,8,3,2,17,0,0,22,0,2,19,3,0,0,1,8,0,0,0,3,3,13,8,2,0,0,0,0,0,0,0,0,0,0,0,0,0,0,0,0,0,0,0,0,0,0,0,0,0,0,0,0,0,0,0,0,0,0,0],"split_type":[0,0,0,0,0,0,0,0,0,0,0,0,0,0,0,0,0,0,0,0,0,0,0,0,0,0,0,0,0,0,0,0,0,0,0,0,0,0,0,0,0,0,0,0,0,0,0,0,0,0,0,0,0,0,0,0,0,0,0,0,0,0,0,0,0,0,0,0,0,0,0,0,0,0,0,0,0,0,0,0,0,0,0,0,0,0,0,0,0,0,0,0,0,0,0,0,0,0,0,0,0,0,0,0,0,0,0,0,0,0,0,0,0],"sum_hessian":[3.2730005E3,1.7872981E3,1.4857025E3,9.376358E2,8.496623E2,1.3877704E3,9.793215E1,1.657547E2,7.718811E2,8.340802E2,1.558207E1,1.7360193E2,1.2141685E3,6.521507E1,3.271708E1,1.4099396E2,2.4760729E1,7.2990454E2,4.1976547E1,2.8089017E2,5.5319006E2,7.4667404E1,9.8934525E1,8.0086536E2,4.1330304E2,2.3726074E1,4.1488995E1,1.3521857E1,1.9195223E1,1.0884193E2,3.2152035E1,1.0795943E1,1.3964786E1,3.9217688E2,3.3772766E2,1.5640393E1,2.6336155E1,1.21015236E2,1.5987492E2,4.9532452E2,5.7865498E1,4.81038E1,2.6563602E1,7.9126324E2,9.602108E0,3.406479E2,7.265516E1,9.276725E0,1.4449349E1,1.8575916E1,2.2913078E1,9.599652E0,9.595571E0,7.1820335E1,3.702159E1,3.263433E2,6.5833595E1,1.2444537E2,2.1328229E2,1.4222977E1,1.2113178E1,9.846053E1,2.2554708E1,5.6961697E1,1.0291322E2,4.8496085E2,1.0363696E1,1.1645001E1,4.6220497E1,2.4687845E1,2.3415955E1,9.205658E0,1.7357944E1,7.217412E2,6.952209E1,3.1190103E2,2.8746838E1,6.115371E1,1.1501453E1,1.8896715E1,5.2923622E1,2.6873783E1,1.0147811E1,1.6674343E1,3.0966895E2,1.5641031E1,5.0192566E1,6.944051E1,5.5004864E1,1.8167056E2,3.1611717E1,8.6586235E1,1.1874299E1,3.8404816E1,1.8556883E1,7.6867546E1,2.6045681E1,3.5651065E2,1.2845018E2,2.3614973E1,2.2605524E1,1.492787E1,9.7599745E0,6.0704297E2,1.1469824E2,2.0525805E1,4.899628E1,2.6851654E2,4.3384502E1,1.39440565E1,1.4802781E1,3.6636257E1,2.4517454E1],"tree_param":{"num_deleted":"0","num_feature":"30","num_nodes":"113","size_leaf_vector":"0"}},{"base_weights":[-5.142857E-1,-9.083579E-1,-3.160567E-1,-1.5108013E0,-8.6598486E-1,-1.005384E0,-2.0422244E-1,-1.5576735E0,-1.3689998E0,-6.8770576E-1,-1.0630527E0,1.0965713E0,-1.1276305E0,-1.6170146E-1,-1.0718524E0,-1.431706E0,-6.0377693E-1,-1.2687975E0,-9.0205044E-1,-1.3049346E0,-6.3548154E-1,-2.2432111E-1,4.3049937E-1,-1.2604525E0,-9.035559E-1,-9.8400396E-1,-1.5321959E0,1.1288683E0,-6.741064E-1,-1.0894047E0,-1.467993E0,-7.434956E-1,-1.1951727E0,-1.1209394E0,-1.4814838E0,-2.7419105E-1,-9.8960567E-1,-3.9716822E-1,-9.312273E-2,-1.182582E0,8.3605075E-1,-8.7176394E-1,-1.4675789E0,-6.5933734E-1,-1.2501692E0,-1.3619999E0,-1.6020688E0,-5.0300145E-1,-9.496789E-1,-5.7137287E-1,-1.2496867E0,-1.341249E0,-1.594566E0,-1.357976E0,-5.357744E-1,-9.9206847E-1,-1.6886146E0,-9.800231E-1,-1.2974852E0,-1.2095914E0,-1.5179107E0,2.0737056E-1,-1.1870999E0,-1.6466988E0,-1.369433E-1,-1.6044717E0,-3.7616184E-1,5.3782128E-2,-4.8427272E-1,-1.7116388E0,-8.672474E-1,1.3198485E0,3.4824854E-1,-1.5667521E0,-1.3115221E0,-4.7184637E-1,-8.902494E-1,-1.4243215E0,-1.0692502E0,-1.201548E0,-3.7058762E-1,-1.2839004E0,-5.891981E-1,4.151019E-2,-1.221347E0,-1.0266391E0,-1.4475154E0,-1.4353994E0,-9.83496E-1,-1.5167971E0,-9.717854E-1,-9.716054E-1,-2.2983365E-1,-1.5961213E0,-7.265276E-1,-7.374818E-1,-1.1396338E0,-1.5016603E0,-1.1881036E0,-1.430173E0,-1.6140203E0,-4.889611E-1,1.3575416E0,-4.0494406E-1,2.518127E-1,-1.869146E-1,2.1089624E-1,-3.8879183E-1,-7.397651E-1,-3.1218714E-1,-1.3077972E0,3.1265747E-2,1.6048851E0,1.5420642E-1,8.919617E-1],"categories":[],"categories_nodes":[],"categories_segments":[],"categories_sizes":[],"default_left":[1,1,1,1,1,1,1,0,0,1,1,0,1,1,1,1,1,1,1,1,1,1,1,1,1,0,1,0,1,1,1,1,1,1,1,1,1,1,1,1,1,0,1,1,1,0,0,1,1,1,1,1,0,1,1,1,0,1,1,0,1,1,0,0,0,0,1,1,1,0,1,1,1,0,0,0,0,0,0,0,0,0,0,0,0,0,0,0,0,0,0,0,0,0,0,0,0,0,0,0,0,0,0,0,0,0,0,0,0,0,0,0,0,0,0],"id":13,"left_children":[1,3,5,7,9,11,13,-1,-1,15,17,-1,19,21,23,25,27,29,31,33,35,37,39,41,43,-1,45,-1,47,49,51,53,55,57,59,61,63,65,67,69,71,-1,73,75,77,-1,-1,79,81,83,85,87,-1,89,91,93,-1,95,97,-1,99,101,-1,-1,-1,-1,103,105,107,-1,109,111,113,-1,-1,-1,-1,-1,-1,-1,-1,-1,-1,-1,-1,-1,-1,-1,-1,-1,-1,-1,-1,-1,-1,-1,-1,-1,-1,-1,-1,-1,-1,-1,-1,-1,-1,-1,-1,-1,-1,-1,-1,-1,-1],"loss_changes":[2.5265662E2,2.7424438E1,1.659068E2,1.2782288E-1,3.5430298E1,7.7397156E1,6.830672E1,0E0,0E0,3.3060852E1,1.572522E1,0E0,2.4648132E1,6.5501884E1,2.5622864E0,2.1766586E0,5.837787E1,7.2626038E0,1.2405258E1,6.509613E0,9.619835E0,3.6213097E1,1.1066975E2,3.0451584E0,3.7850227E0,0E0,1.6733551E-1,0E0,2.159021E1,9.130753E0,1.247757E0,2.2302216E1,9.2022705E0,2.3531647E0,7.537079E-1,1.657385E1,2.1300205E1,1.7379997E1,5.218973E1,5.4339027E0,3.180545E1,0E0,7.304001E-2,1.1225986E0,3.5173607E-1,0E0,0E0,2.6182465E1,2.1063736E1,1.0608113E1,3.5070648E0,1.4772186E0,0E0,2.477829E0,1.750285E1,1.0615395E1,0E0,2.103691E0,7.207489E-1,0E0,4.1075134E-1,1.9936487E1,0E0,0E0,0E0,0E0,1.2263008E1,2.4979204E1,6.002926E0,0E0,5.2240677E0,2.4880661E1,7.097459E0,0E0,0E0,0E0,0E0,0E0,0E0,0E0,0E0,0E0,0E0,0E0,0E0,0E0,0E0,0E0,0E0,0E0,0E0,0E0,0E0,0E0,0E0,0E0,0E0,0E0,0E0,0E0,0E0,0E0,0E0,0E0,0E0,0E0,0E0,0E0,0E0,0E0,0E0,0E0,0E0,0E0,0E0],"parents":[2147483647,0,0,1,1,2,2,3,3,4,4,5,5,6,6,9,9,10,10,12,12,13,13,14,14,15,15,16,16,17,17,18,18,19,19,20,20,21,21,22,22,23,23,24,24,26,26,28,28,29,29,30,30,31,31,32,32,33,33,34,34,35,35,36,36,37,37,38,38,39,39,40,40,42,42,43,43,44,44,47,47,48,48,49,49,50,50,51,51,53,53,54,54,55,55,57,57,58,58,60,60,61,61,66,66,67,67,68,68,70,70,71,71,72,72],"right_children":[2,4,6,8,10,12,14,-1,-1,16,18,-1,20,22,24,26,28,30,32,34,36,38,40,42,44,-1,46,-1,48,50,52,54,56,58,60,62,64,66,68,70,72,-1,74,76,78,-1,-1,80,82,84,86,88,-1,90,92,94,-1,96,98,-1,100,102,-1,-1,-1,-1,104,106,108,-1,110,112,114,-1,-1,-1,-1,-1,-1,-1,-1,-1,-1,-1,-1,-1,-1,-1,-1,-1,-1,-1,-1,-1,-1,-1,-1,-1,-1,-1,-1,-1,-1,-1,-1,-1,-1,-1,-1,-1,-1,-1,-1,-1,-1],"split_conditions":[8.896E1,1.5E0,2.0175E3,2.45E1,8.5E0,7.5E0,1.15E1,-4.1697163E-2,-3.6646582E-2,5.9955E1,2.0175E3,2.9353978E-2,5E-1,5E-1,1.85E1,2.0175E3,6.1075E1,1.05E1,5E-1,9.5E0,1.085E2,6.5E0,1.045E2,1.0034E2,4.5E0,-2.6340676E-2,1.5E0,3.0218532E-2,5E-1,5E-1,5E-1,6.7130005E1,1.15E1,3.5E0,9.0045E1,1.7E1,2.5E0,1.5E0,1.3797E2,9E0,1.1625E2,-2.3336139E-2,4.5E0,2.65E1,1.3045E2,-3.64592E-2,-4.2885575E-2,6.7475E1,3.5E0,7.53E1,7.1235E1,2.35E1,-4.2684734E-2,4.5E0,1.45E1,1.5E0,-4.5202307E-2,1.02575E2,9.95E1,-3.2379396E-2,1.55E1,1.45E1,-3.1777326E-2,-4.4080272E-2,-3.6658177E-3,-4.2949896E-2,2.95E1,1.05020004E2,1.6869E2,-4.581864E-2,1.55E1,5.5E0,5.5E0,-4.1940186E-2,-3.510797E-2,-1.2630795E-2,-2.3830973E-2,-3.8127482E-2,-2.8622624E-2,-3.2164086E-2,-9.920212E-3,-3.4368567E-2,-1.577217E-2,1.111181E-3,-3.2694083E-2,-2.7481971E-2,-3.8748354E-2,-3.8424022E-2,-2.632708E-2,-4.060295E-2,-2.60136E-2,-2.6008781E-2,-6.1523877E-3,-4.2726368E-2,-1.9448323E-2,-1.9741556E-2,-3.0506711E-2,-4.0197756E-2,-3.1804193E-2,-3.828412E-2,-4.3205503E-2,-1.3088937E-2,3.6339857E-2,-1.0839896E-2,6.740742E-3,-5.003493E-3,5.6454544E-3,-1.0407519E-2,-1.9802678E-2,-8.356897E-3,-3.5008255E-2,8.369488E-4,4.2960964E-2,4.1279322E-3,2.3876809E-2],"split_indices":[12,7,6,8,7,7,7,0,0,12,6,0,17,17,8,6,12,7,28,7,12,7,12,12,16,0,16,0,28,16,28,12,7,16,12,8,16,7,12,8,12,0,16,8,12,0,0,12,16,12,12,8,0,16,8,16,0,12,12,0,8,8,0,0,0,0,8,12,12,0,8,7,16,0,0,0,0,0,0,0,0,0,0,0,0,0,0,0,0,0,0,0,0,0,0,0,0,0,0,0,0,0,0,0,0,0,0,0,0,0,0,0,0,0,0],"split_type":[0,0,0,0,0,0,0,0,0,0,0,0,0,0,0,0,0,0,0,0,0,0,0,0,0,0,0,0,0,0,0,0,0,0,0,0,0,0,0,0,0,0,0,0,0,0,0,0,0,0,0,0,0,0,0,0,0,0,0,0,0,0,0,0,0,0,0,0,0,0,0,0,0,0,0,0,0,0,0,0,0,0,0,0,0,0,0,0,0,0,0,0,0,0,0,0,0,0,0,0,0,0,0,0,0,0,0,0,0,0,0,0,0,0,0],"sum_hessian":[3.2347866E3,1.082412E3,2.1523745E3,7.076206E1,1.01164996E3,3.0027063E2,1.852104E3,5.1973637E1,1.8788425E1,